homolog_group,mean_embedding,st
1-4-dihydroxy-2-naphthoate_octaprenyltransferase,0.013264545 0.017554566 0.036821526 0.032284494 -0.020759802 0.047314696 -0.052265868 -0.04542125 -0.004795331 -0.03829947 -0.018747766 0.049434748 0.0036466771 -0.0060981843 0.040329434 -0.015561088 0.024086405 -0.0061565354 0.0046383566 0.0028112337 -0.018392818 0.02509298 0.08318519 0.0429115 -0.016573524 -0.04986496 -0.004041027 0.010993093 -0.008003715 0.0055162273 -0.037211265 0.03563416 -0.11457203 -0.044207864 -0.11008286 -0.0004190299 -0.020971816 0.033059087 0.01913619 -0.013978998 0.014896648 -0.020448625 -0.037152346 0.020222135 0.013904254 -0.023263145 0.0038777713 0.045015432 0.014601758 0.02572067 -0.024803838 -0.013834206 0.022667063 -0.051167972 0.04248538 0.028367085 0.0015811126 -0.022982454 -0.01844487 -0.011166573 -0.04192756 0.018401435 0.0009311984 -0.006523639 -0.0021533978 0.016074559 0.018008001 -0.02655214 0.003100326 -0.031375676 -0.0016006089 -0.020520125 -0.11369592 0.022482017 0.011240166 0.0039578197 0.0200086 0.0101570655 -0.005307627 0.022432124 -0.0053485488 -0.0047883345 0.009577109 0.00042253482 0.006515004 -0.03657654 0.033768106 0.017369458 -0.0500024 0.027502682 0.008536354 0.018757347 -0.04459327 -0.007231618 -0.026683992 -0.0263999 -0.026252815 0.039213806 -0.012904226 -0.011889394 -0.023042936 0.023440475 -0.005558902 -0.02949993 0.036341235 0.019165302 0.011597405 -0.016712297 -0.04345652 -0.10406781 -0.010048401 -0.044121724 0.009348577 0.0370625 -0.016599143 0.008124089 0.01429284 -0.03569311 0.023966068 -0.04054586 0.013233774 -0.021670185 -0.043029677 -0.013809728 0.0026023376 0.02752437 -0.025499845 0.003514786 0.016313888 -0.022372074 0.012435168 -0.008224967 -0.004518624 -0.02997561 -0.08333892 -0.007848844 -0.023614883 -0.02971856 0.014269184 0.00786307 0.064196326 -0.05944647 -0.010996659 -0.03634438 -0.008260748 0.0053296196 -0.005104162 -0.004725405 0.07406656 -0.016189978 0.021979546 -0.025628064 -0.039922774 0.026119193 0.015336725 -0.0007355113 -0.005371124 -0.012398955 -0.018234117 -0.0136469 -0.017402722 0.013675613 -0.074795656 -0.024166733 -0.036613695 0.026580913 0.036874365 0.0050538643 -0.004226631 0.030107185 0.017930126 0.0014138297 0.014498127 0.0024795306 0.04627228 -0.0024471174 0.022052372 0.026346112 0.02089616 0.018708186 -0.016064864 -0.046187326 0.03692175 -0.039706457 -0.02294982 -0.0075669833 -0.014368651 0.021656495 -0.036959585 0.07009846 0.07325216 0.007671489 -0.018761778 0.008976729 0.018360049 0.006621112 -0.017676236 0.009822712 0.0124741625 -0.01840279 -0.0006935373 -0.030424295 -0.026107183 -0.040669102 -0.028080823 -0.010201163 -0.030925639 -0.014725518 -0.028650895 -0.006899562 0.00090857287 -0.03351354 -0.032301713 0.0041427244 0.049197715 -0.01896542 -0.00581194 0.01324306 0.003308282 -0.017896762 0.00672188 -0.040850654 0.01227476 0.05022518 -0.004537224 -0.022012487 0.0039543402 0.0042099794 0.021913972 0.0075689335 0.016757937 -0.028933411 -0.0115329875 0.04395403 0.004006319 -0.0021239396 -0.020402728 -0.0496543 0.008651434 0.0049610925 0.007885517 -0.0720008 0.014616281 -0.041641854 -0.012959661 0.004785978 -0.0071230144 -0.00365207 -0.009952204 0.0070058433 -0.046692006 0.010091781 -0.0024726205 -0.0304843 -0.007581338 0.009339697 0.056739006 0.004899595 0.008892077 0.03808327 -0.03202328 0.009003008 -0.026853193 0.0033198486 -0.01218165 -0.016180152 -0.016157683 0.015012833 -0.03032557 -0.014324108 -0.013146763 -0.053724907 -0.008967016 -0.112825856 -0.030022508 -0.05457654 -0.0037743074 -0.03401816 0.017434992 -0.0974077 -0.009874125 -0.00990795 -0.03928189 -0.041827153 0.009125175 0.026583306 0.05533748 -0.022831392 0.03978153 0.03685918 -0.0075810603 0.035479646 -0.016894802 -0.008216854 0.2559977 0.015930606 0.025050446 -0.020637905 -0.006405234 0.006209487 -0.007837444 0.007827625 -0.007716877 -0.045791864 -0.0076497328 -0.009987376 -0.033595026 0.014996927 -0.024705967 0.033860106 -0.028916126 0.047211472 0.0053665526 0.0035784445 0.010642351 -0.025063438 0.04853851 0.0016963664 -0.032999232 0.009164964 -0.0019496826 0.012984954 -0.013088073 0.006927363 0.0018096297 0.041900158 -0.04613225 -0.0025808092 -0.027018264 -0.020395003 -0.0072636707 -0.0091241775 -0.015027604 0.00094595965 -0.018444864 0.08871899 -0.020302383 0.026909191 -0.015554959 0.04461202 -0.035263333 0.0006590538 0.025358876 0.037568744 0.03719772 -0.004387052 -0.009470009 -0.002954324 0.0061016725 0.0066637974 -0.01526044 0.005055188 0.004081189 0.0496032 0.05094665 -0.03760067 -0.05297191 0.021588594 0.054357372 0.0316737 -0.010714896 0.00892304 -0.006076676 -0.023584096 -0.031052444 0.014882441 0.0010044308 0.041446682 0.00576726 -0.040989622 -0.07475737 -0.002887821 -0.007034789 0.007151775 -0.019632932 0.027173657 0.012182327 0.031812046 -0.009445016 -0.03173282 6.53311e-05 -0.021440867 -0.051690128 -0.01695224 0.004040334 -0.009307796 0.011179777 0.0468415 -0.026087582 -0.038154785 0.015603714 -0.11882292 0.017812695 -0.036766432 -0.03012135 0.032758866 -0.016961 0.019234464 -0.0016062849 0.028650742 0.03645805 0.036166877 0.05171226 0.014678782 -0.07425271 -0.08179055 -0.029065378 0.08088848 -0.02327384 -0.028407019 -0.037869945 -0.026217943 -0.0016384707 0.0023807676 0.001024863 -0.03803441 -0.027306821 -0.02548761 -0.038036898 0.028711196 0.0227767 -0.0904736 0.025596468 -0.036453273 0.031184636 0.018115465 0.04588581 0.015916185 -0.03975806 0.02390614 -0.09298986 0.030709332 -0.014348028 -0.099259384 0.03464073 0.0033478215 -0.015766311 0.16220367 -0.029808503 0.014840006 0.0043896423 0.009834902 0.061931502 0.1174873 0.011491363 -0.033267505 -0.0126449885 0.012308228 0.015288657 0.031232728 -0.027879745 -0.0075447466 0.04880148 0.0068393284 0.019814312 -0.01708188 -0.05101962 -0.039191645 -0.011328672 0.0610263 -0.005887091 0.005179622 0.031321015 0.032845184 -0.0072183423 -0.01713963 0.04541237 -0.007927098 -0.0017395463 -0.013641729 0.015613004 -0.035293426 0.038816527 -0.0371959 -0.043851618 0.023460172 -0.024321306 0.01623107 0.034398478 -0.012761727 -0.035951585 -0.019973332 -0.011257624 0.009423149 0.009187063 -0.02747855 0.005214431 -0.042026855 -0.0195449 -0.02155975 0.002891857 0.011567331 -0.0030545467 -0.008432798 -0.012888584 0.029529024 -0.030147934 0.008997928 -0.030333968 -0.045939848 -0.04544923 -0.019329807 -0.036006957 -0.08018345 -0.045226716 -0.033385653 0.020577975 -0.021094197 -0.00043848355 -0.0056916634 0.024079908 0.014183463 -0.016599571 0.007874052 0.019354135 -0.0012026207 0.0020919333 0.009160579 0.007742626 -0.009673896 -0.0109031135 0.04352678 -0.023706518 -0.023486527 -0.042996097 -0.086917445 -0.03347343 0.04339502 -0.005245459 -0.01659314 -0.008851255 0.027971085 0.008267834 0.0009020542 -0.022042677 0.034103 -0.051109172 -0.0024576532 0.017198676 0.09403473 -0.029456658 0.04037746 -0.010121792 -0.0094690025 0.0016990436 -0.002068809 0.033548806 0.011472604 -0.02781698 -0.010423957 -0.03923093 -0.015157437 0.0028256394 -0.008112121 -0.0014768692 -0.017098228 -0.034377832 0.017977582 0.044699404 0.021964587 -0.038532104 -0.052216005 0.0075378553 -0.0030742525 0.003364616 0.009566119 0.009813583 -0.019714683 -0.063565366 0.04600179 0.0068206894 -0.018822752 0.024412671 -0.024664437 0.026624735 -0.010372002 -0.014487467 -0.0341905 -0.0050437413 -0.006735466 0.025013063 0.009755661 0.00122095 -0.0755109 0.06730292 0.03542074 -0.017825086 0.0051492676 0.011797451 0.0048021735 0.02323993 -0.038753968 0.02433741 -0.0067188884 0.006598022 0.05567059 0.0075049587 0.00470944 -0.01231037 0.025440508 -0.025690105 0.0136208 -0.025469458 0.00095546327 -0.004192663 0.005351984 -0.00046838445 -0.00027170943 -0.009054833 -0.0040691537 0.023550818 0.010536115 0.015268393 -0.033921193 0.013456424 0.12838076 -0.019080093 0.004533363 -0.013607157 -0.0036524953 -0.038368538 -0.0008146425 -0.10811152 -0.009217048 0.010323729 -0.054127768 0.002335756 0.0058659767 -0.013529949 0.017460903 0.039863467 9.88295e-05 -0.00038558996 -0.014479019 0.026194517 -0.025115872 0.04069563 -0.013570965 0.0002936961 0.003088245 0.014676574 0.023903195 0.03410807 0.009738039 -0.01711032 -0.013314998 -0.022573609 -0.0030295767 -0.04581705 0.01782208 -0.0035429054 -0.023224814 0.0073206797 0.03633739 -0.009481218 -0.05555331 0.0753706 0.042990245 0.030258717 0.027228732 -0.0517601 0.018170837 -0.01814485 -0.04411673 0.050845183 0.024376562 0.020193975 -0.041686818 0.017533489 -0.0017630431 0.024505528 -0.05673896 -0.0034409729 -0.011747963 0.030856462 -0.031378366 0.012437732 0.017225878 0.0050877235 -0.01116814 0.058455657 -0.013592343 -0.020216933 0.056752387 0.011523812 0.03077001 0.035932332 0.0030317535 0.037650067 0.033063926 0.018809728 0.018163443 0.006877796 0.0024832366 -0.01491891 0.008158932 0.004351395 0.022351379 -0.046251263 -0.023715328 -0.008092892 -0.00012795912 -0.013158703 -0.009944441 0.015940806 -0.0038914059 -0.036590774 0.00011274727 0.04709427 -0.014314582 -0.031442467 -0.02602568 0.031833958 0.0337728 0.016930211 -0.034784347 0.008692256 0.011073873 0.014511929 -0.03115234 -0.04428408 0.03061132 -0.0015218375 0.023547782 -0.01722395 0.03298316 0.03115854 -0.012937317 -0.03806742 -0.024011277 9.885537e-05 -0.0076504275 0.0015135335 -0.07748858 0.03733565 -0.0146914115 0.01421643 -0.031440817 0.016346699 0.04106281 0.0011063449 0.02750892 0.025409989 -0.0069536385 0.05335197 -0.06971745 0.018678678 0.008605557 0.010340594 0.0006567345 0.02399335 0.0067131245 0.020817557 -0.04994051 0.017572412 -0.02613158 0.02786505 0.026636504 -0.0010923174 -0.005651188 0.009417812 -0.0071570314 0.0026295881 -0.008997648 -0.01446683 0.02290181 -0.028086854 -0.0212294 0.018562086 -0.003761656 0.007094419 0.051521182 -0.019478286 0.016664727 -0.021446886 -0.015549464 -0.03781603 -0.016714169 -0.011392937 -0.005469086 -0.057064112 -0.033885594 0.01869178 -0.0057927747 0.03060655 0.028473761 -0.008231167 -0.026082333 0.012805881 0.018799052 0.00087447563 0.010687092 0.09163959 0.05908586 -0.0034865127 0.0014913157 -0.023231223 0.037413947 0.012684246 -0.009889006 -0.03676377 0.0040342426 0.027713615 0.015978448 -0.02537926 -0.020402795 -0.0033602007 0.003249522 0.027822208 0.0010737933 0.0025285014 -0.006128143 0.015335204 0.037618108 0.117861904 0.019763881 -0.017777976 -0.0517182 -0.03243416 -0.03399329 0.0014726806 -0.021038821 0.033734474 0.0029820171 0.00054923183 -0.030653987 0.018286798 -0.01565198 -0.012657355 0.0060107093 -0.015281557 -0.004295588 -0.0006048632 -0.03219839 0.030472165 -0.010308294 0.036224104 0.0458648 0.034581017 0.032174356 -0.009231957 -0.022459012 0.02803841 0.016465764 -0.020875856 -0.035672113 -0.035836983 -0.044353474 0.011860743 -0.0014721545 -0.045583587 0.014847729 0.016135387 -0.03358017 -0.017725548 -0.022314014 -0.01341395 0.022247175 0.01608101 -0.030118132 -0.026635872 0.017701937 -0.010728443 -0.0053709503 0.016434474 -0.025984377 0.016306102 -0.007656022 0.006657722 0.052591935 0.031956118 -0.013800498 0.0021106354 0.072965294 -0.0074136727 -0.07185173 -0.02112645 -0.009716303 -0.09455844 -0.025567861 0.018522449 -0.042003937 -0.0286828 0.00075603434 0.0022980783 -0.03833979 0.012542386 0.009508635 0.021064097 0.02909675 0.010779278 -0.0075024064 -0.0052917637 -0.05672293 -0.006636945 -0.015554212 -0.0054349485 0.0044614165 0.1055411 0.0060325507 -0.009332247 0.014055418 -0.06387011 -0.011125092 -0.030079782 -0.017307634 -0.037235167 -0.026721332 -0.05320202 -0.013096536 -0.019204399 -0.06035161 -0.021962987 0.13329943 0.015255604 -0.018644033 -0.06315291 -0.050981767 0.002044287 0.06153556 -0.021585032 -0.0094666025 -0.00901437 0.031334106 0.0026514998 -0.013918404 0.03228841 -0.041565932 -0.008099071 -0.028309893 0.019452931 0.020438433 -0.009031613 -0.02213019 -0.0040217927 0.022903811 -0.0015949713 -0.0005187469 0.037734427 0.07176324 -0.0116919195 -0.009803087 0.015823869 -0.030803785 0.028408917 -0.05219198 -0.02250059 -0.106772736 -0.029183425 0.002278905 0.023450606 0.0046096463 0.030262733 -0.10828593 0.00928223 0.0114489915 0.005853019 -0.008878352 0.027914535 -0.004336738 0.021516936 -0.004602458 0.026576439 -0.013245385 -0.01726309 -0.025915466 -0.06414727 0.00077620696 -0.0021118643 -0.0142818475 0.04190954 0.014788793 0.018638818 -0.015571875 -0.029077139 0.073287025 -0.03406543 0.032158375 -0.020533906 -0.015693072 0.013533465 0.0029213487 0.00830204 -0.011408007 0.009429248 -0.0062643182 -0.049288854 0.00319627 0.00095298054 -0.013834967 0.036071762 -0.0148265 0.009700303 0.02035448 0.009036613 -0.041056633 -0.0067984974 -0.0702589 -0.010683009 -0.002651669 0.0330518 -0.017067093 -0.023341436 -0.017535705 0.11157465 -0.00097608025 0.019684877 0.04438851 0.042831596 0.01721303 -0.03439237 -0.054708686 0.07223276 0.024168259 -0.056608666 -0.018309366 -0.022904666 -0.0774108 -0.011794585 0.0021795828 -0.024048835 -0.011786611 -0.005704665 -0.017091377,0.9469
2-amino-4-hydroxy-6-hydroxymethyldihydropteridine,0.05058906 -0.0031270513 0.016254097 -0.022074033 -0.019984111 0.10984254 -0.081836626 -0.124069095 -0.009987733 0.025810773 -0.04662491 0.06668423 0.005917514 0.071334995 0.013955817 -0.013604687 0.050495468 0.033435844 -0.0071818777 0.01246255 -0.025870048 -0.0054930244 -0.046073325 0.07350363 0.044083133 -0.02419855 0.0142958695 -0.022813166 -0.0016610865 0.045338325 -0.011443533 0.027341306 -0.10596209 -0.010988114 -0.107990354 0.026562594 -0.021018583 0.014987963 -0.016759213 0.02440992 -0.0077957795 -0.034160703 -0.09990102 -0.018874658 0.010107778 -0.022548486 -0.022272302 0.022350175 -0.048214793 0.020243129 0.0031486657 0.0037526656 -0.0027349486 -0.0626753 0.08145436 0.009351968 0.0075234612 0.04209138 0.042956665 -0.0003751702 -0.048630062 0.037643157 0.022403734 0.042007275 0.0057890983 0.051600948 0.0047860765 0.011316224 0.015231089 -0.024180096 0.032172576 0.020327905 -0.1355336 0.019681731 -0.023326257 0.018239973 0.080422714 0.006538066 -0.057135664 0.022534559 0.0067567457 -0.040907186 0.004299748 0.054512743 -0.0012365391 0.002278134 0.050837513 -0.021138253 0.001077948 -0.00874426 0.033597603 0.033282857 -0.02739002 0.013319869 -0.02709564 -0.009466445 -0.012571324 0.011643578 0.008692937 -0.038410623 -0.035059325 0.007689497 0.0026155943 0.009719326 -0.01100884 0.02132173 0.044984557 -0.014484166 -0.051352244 -0.014470346 0.0006682436 -0.039542645 -0.020009847 0.0115613835 -0.015147292 0.010923451 -0.009859503 0.023107661 0.013713181 -0.05682578 -0.0056763706 -0.0175419 0.049577873 -0.0300737 -0.02491018 0.055722818 0.0070432383 0.012628273 0.039112765 -0.010983228 0.07426134 0.0066036345 -0.025118217 -0.03236424 -0.01496204 -0.034267142 0.028206613 -0.0005204086 0.0050331363 -0.040149048 0.030801427 -0.0061861956 -0.019889327 -0.037408978 -0.010299804 -0.0062163696 0.023350086 -0.012469326 -0.05759775 0.01504927 0.0033301206 0.0014013711 -0.033245124 -0.0080532795 0.020537313 -0.0522528 0.019822301 -0.01820478 0.01627744 0.005323619 -0.01633325 -0.0039969524 -0.025687918 -0.051590946 -0.00082121394 0.03333243 0.045166813 -0.022351278 0.008251209 0.045043632 0.038889006 -0.04328553 0.0005537953 0.0804068 0.057474144 0.052407213 -0.00053481484 0.009699136 0.011073659 -0.026049038 -0.019799486 -0.020190032 0.0066230115 -0.024736533 -0.041279506 0.045839977 -0.021223329 0.021715203 -0.036811084 0.028900072 0.12848918 0.02196273 0.0010107704 -0.009817457 0.0013385114 0.0273823 -0.0070364596 0.043191504 0.0052781184 -0.042916637 -0.044781636 -0.008761127 0.0006998544 0.04705436 7.7222954e-05 0.024052525 0.088644385 -0.020925377 -0.029027123 -0.00605904 -0.00014639673 -0.03774514 -0.047413215 -0.021332357 -0.013147271 -0.030687727 0.017286768 0.013948452 0.02766876 -0.041026216 -0.016866438 -0.042076625 -0.0137955155 0.02505196 0.023759909 -0.033977263 -0.021458872 0.021515537 -0.01679122 -0.05021982 -0.0045819944 -0.043829475 0.004195414 0.06924115 0.025779646 0.00870843 0.016469663 -0.012243198 -0.016807849 0.0010073907 0.011975897 -0.01521199 -0.010939126 -0.074625246 -0.048460014 0.02579883 -0.013518385 0.011844693 -0.055275984 0.01907406 0.013781746 0.03999876 0.010174449 0.048714805 0.029819459 0.009893199 0.027530717 0.009590999 -0.04188309 0.013192082 -0.010878118 0.0029563722 -0.075320326 -0.025269227 -0.023051402 0.014194894 -0.0057984306 0.050412968 0.017147226 -0.053800248 -0.01085985 0.01986858 -0.06471245 -0.09646485 -0.026607893 0.044050492 0.0077816495 -0.010778064 -9.549e-05 -0.094142005 0.018822832 -0.017570702 -0.06502093 -0.054840915 0.0055277403 -0.014533115 0.01502427 -0.01248262 0.0051699486 0.00783083 -0.031223772 0.010143055 0.005045281 -0.025722139 0.21343502 0.010796055 -0.015537341 -0.03430838 0.0069662943 0.013089775 0.025548695 -0.033389837 -0.031913735 -0.01078179 -0.018902646 -0.0024339927 -0.020417336 -0.029921819 -0.028570954 0.0667326 0.00070852315 0.0020692272 0.016589446 -0.07099887 -0.0059147547 0.0064255367 0.014100731 0.029853681 0.012143214 0.025298472 0.023021104 -0.011120302 0.033800274 -0.0061222464 -0.011692397 0.038869336 -0.027164351 0.024988659 -0.008411301 -0.04903326 0.04881943 -0.053855915 0.004045784 -0.0028478126 -0.0014873651 0.06644956 0.025434231 0.047539305 0.011867648 -0.021151915 -0.039472643 0.022296853 0.0070918375 0.014604532 0.028501138 0.07432682 -0.042204536 -0.02012319 0.037072383 0.044112448 -0.02611851 0.008933079 0.008237647 0.034278795 0.037481572 -0.020249283 -0.037785895 -0.0041873734 0.0497874 0.06476291 -0.014222501 0.0073739463 0.013366211 0.0036202087 0.034967773 -0.024557713 -0.00757909 0.03510035 0.027664796 -0.01565991 -0.054215007 -0.019431312 -0.009493269 -0.038279787 -0.009404158 0.023978975 0.039706387 -0.01905381 0.014278257 -0.08858751 -0.004460916 0.00329391 -0.008010925 -0.035719454 0.0070983493 0.0010213141 0.027716767 0.027028684 -0.07728759 -0.028247168 -0.009448018 -0.09260262 0.020078639 -0.011037132 -0.034625683 0.0010741156 -0.057108674 0.04891442 0.019587219 0.037202593 0.033997566 -0.003351775 0.072678484 0.049811263 -0.040885773 -0.107393175 0.03681388 0.0951592 -0.031197071 -0.07588783 -0.025669053 -0.050492346 -0.03502246 -0.006676363 -0.021492349 -0.013720313 -0.02758913 -0.014373851 -0.015223911 0.013438825 0.015257601 -0.020002648 0.058919016 -0.016406374 0.030853026 0.015344009 0.021537544 -0.06009473 -0.0024749823 0.022718832 -0.0538252 0.014420271 -0.014001405 -0.062184356 -0.034944292 -0.016177159 0.068877906 0.12889409 -0.023530638 -0.016904715 -0.010575698 -0.009473919 0.036849394 0.12357577 0.07380281 0.029297804 -0.07739055 -0.0034687668 -0.02296246 0.022261668 0.0006514002 0.020757202 -0.0049190847 -0.035239633 0.008386014 -0.03641588 0.007525497 -0.005213843 -0.014805634 0.022640344 -0.036271673 -0.010516024 0.082451716 0.054071482 -0.03241154 -0.014828935 -0.0048533017 0.03388762 -0.016944729 0.019356947 -0.0036228793 -0.037131183 -0.01465022 -0.011238729 0.0032242548 -0.016967587 0.0043262667 0.033245508 0.012129773 -0.01495588 -0.016594768 -0.015794411 0.010626615 0.0067308503 0.03258002 0.017772157 0.05844581 0.017453978 -0.033053067 0.00508803 0.0021242488 0.004235541 -0.01461535 -0.047633782 0.03446244 0.06992453 0.028922133 -0.0097942315 0.0060380776 -0.029998146 -0.08469358 -0.0015394413 0.018133588 -0.16055267 -0.07332731 0.016366228 0.07364041 -0.033742886 0.04826112 0.014336808 0.043164607 0.04778068 -0.011269881 0.006693342 -0.017400142 -0.020057233 0.01698585 -0.0034323656 -0.025115933 -0.021180116 -0.003917996 0.053621255 0.048122466 -0.074837886 -0.06624279 -0.11505784 0.021464322 0.055716168 0.04726142 0.015139839 0.007924825 -0.014135763 0.0038043158 0.006298061 0.004553852 -0.00010412877 -0.027410425 0.029802915 0.024872568 0.030953642 -0.024623666 -0.008021058 -0.02021473 -0.065918446 -0.036086936 0.04998102 0.0058661187 0.0058419844 -0.012908006 -0.050065067 -0.011088519 -0.008578569 0.008435292 -0.033846587 -0.03388901 0.014096025 -0.08436047 0.009792917 0.0034738956 -0.0019523061 -0.12917955 0.0028798631 0.021674901 -0.0048141344 0.063193016 -0.0012958954 0.0607615 0.0076413946 0.04897379 0.05527814 0.02810461 -0.034897238 0.009206143 -0.03382654 0.04930767 0.005827692 -0.038847823 -0.020470118 -0.021595912 0.02218152 0.072050475 0.03188748 0.018010553 -0.02252048 0.013248307 0.04376651 -0.0012887792 0.0018436277 0.034749337 -0.010185747 0.005051162 -0.009357835 0.02424567 0.010222424 0.021506937 0.025438834 0.0053655594 0.037265148 -0.009640187 0.028095966 -0.024681496 0.022004083 -0.004879756 0.010139305 -0.017010259 0.03025814 0.062133968 0.041867726 -0.03184883 0.0015420822 0.004511583 -0.01255617 -0.03996502 -0.052303273 0.035176728 0.12988329 0.00084331207 0.02482918 -0.0047368654 -0.013811167 -0.046682235 -0.030115169 0.031500258 -0.03548645 0.011397608 -0.0011347788 0.037897184 -0.004247814 0.000122034035 -0.015009099 0.014447492 -0.014510711 -0.044350684 -0.0058971243 0.014257005 -0.07320332 -0.05382823 -0.021849062 0.04615563 -0.0069253435 0.013766118 0.0010892126 0.056875456 0.053147614 -0.031723186 -0.00731365 0.015873674 -0.019065455 -0.043046214 0.0038095503 -0.010064756 -0.0031964432 -0.006561508 0.04743467 -0.0676809 -0.0005246742 0.047156226 0.015004721 0.039563738 0.012284413 -0.011307987 0.03487293 -0.019978542 0.025599817 0.0024893272 0.00903589 -0.041458156 -0.0153600555 -0.020276807 -0.014513137 0.019092014 -0.020155704 0.053690057 -0.02779572 0.0113994675 0.0036911152 0.011953951 0.060996898 0.0074642156 -0.0013872816 0.048447814 0.025741648 -0.008384605 0.14435236 -0.006024008 -0.014652219 0.032318916 -0.027628029 0.018415667 0.027836004 0.0028458976 0.04026728 0.0057871193 -0.032519773 -0.024287675 0.00946073 0.032001063 0.014946765 -0.024768183 -0.022758298 0.009350016 -0.039688967 0.0025891173 -0.022459343 -0.008807112 0.0342057 -0.044755872 0.032212555 0.053915218 -0.013788834 -0.059601966 0.023884911 -0.030692605 0.013401285 0.004257413 -0.011140798 0.049139716 -0.01925821 0.006448248 0.012058796 0.031701542 0.027514422 0.012082679 -0.021575298 0.034477122 0.017855223 0.013414713 -0.00039614076 -0.015617868 -0.022448294 -0.04260394 -0.03431848 -0.04692295 -0.1065162 0.050893925 -0.03693427 -0.016728537 -0.018787201 0.045894053 0.035942987 0.009553914 0.019478291 -0.0049837762 -0.011822723 0.054074716 -0.007213419 0.03930171 -0.021317653 -0.00043043902 0.0087151695 0.009278475 0.038619608 -0.02479699 -0.07262856 -0.012363277 -0.013208062 0.09010371 0.015063786 0.06501897 -0.012121889 0.0076291156 0.030142775 0.01754289 0.034670927 0.028054288 -0.005198762 -0.012010052 -0.028732115 0.030005813 0.012805725 -0.012102323 0.008025585 0.009968304 0.034925476 -0.014296986 0.024112917 -0.042574946 -0.0038906613 0.021588398 0.0073573343 -0.029603217 -0.014499358 0.043768086 -0.0205035 0.03387836 -0.019956764 -0.05361412 0.003209009 -0.018226238 0.01760341 -0.016818298 -0.0324357 0.042676914 0.03354552 -0.045700412 0.010789619 -0.0033194865 0.084852375 -0.0032472163 0.038217336 0.025778262 -0.005484222 -0.00029316338 0.066283524 0.012859268 0.012790674 -0.03334504 -0.008932806 0.035808958 0.004819822 0.010854304 -0.0041267853 -0.03582245 -0.013414798 0.119022325 -0.0178773 -0.019413784 -0.15012924 0.04055301 -0.013168711 -0.030352455 0.0028668982 0.067508034 0.02896152 0.0066833836 -0.05319715 0.021925034 -0.028099231 0.024038836 0.02026636 -0.017767673 0.020090831 0.0034852151 -0.06053071 0.00013767328 -0.06322881 0.060142353 0.11899134 0.021927495 -0.058090135 0.0345021 -0.05865727 0.0034554552 0.012282086 -0.022375394 -0.026103467 -0.029437833 -0.012948336 0.027267242 0.024453323 0.049223915 -0.039233692 0.002312419 -0.041143883 -0.004870999 0.0038255106 -0.02956497 0.107260965 -0.0029553536 -0.004954817 -0.06896333 -0.0011119856 0.037624497 -0.03304741 -0.0023728083 -0.010457844 -0.005912619 0.0011472352 0.0012656365 0.03432986 0.040042706 -0.0226924 0.005861093 0.04721758 -0.017521814 -0.09545183 -0.0033490711 -0.029597756 -0.110465676 -0.004324619 0.036331587 -0.015500693 0.018145064 -0.026064023 0.03200913 -0.040550683 -0.030086756 0.020372514 0.00090167887 -0.00980082 0.030337537 -0.0071195154 -0.019443598 -0.016502218 -0.009669968 0.015328696 -0.0044193547 -0.024521593 0.102216095 -0.01021934 -0.036690943 -0.02581759 -0.08187343 0.007455566 -0.023169808 -0.018844225 -0.038529158 0.015444087 -0.024021763 -0.06951447 -0.054382924 -0.030793898 0.010696886 0.10643998 -0.004355437 0.010231293 -0.054595932 -0.038133446 -0.025237117 -0.039655954 0.014809244 0.04748291 0.023799527 0.0051020947 -0.049020227 -0.011091458 0.04723861 -0.008349444 0.008974914 -0.0086073335 -0.0020453078 0.040109754 -0.013436557 0.007014133 -0.0036053127 0.026274674 -0.010779542 -0.011886868 0.052082982 0.052827284 -0.014753606 -0.024939826 0.007885234 0.017114872 -0.0026899294 -0.020598136 -0.042855993 -0.13598798 0.0016030502 0.0058223107 0.014761826 -0.06625797 -0.0147423735 -0.019216852 -0.021212833 0.004776238 0.020979168 0.032768436 0.04319498 -0.036159277 -0.0078605255 0.012636542 -0.015172571 -0.038762685 0.017124807 -0.017798085 -0.06948103 0.028736064 -0.025656186 -0.00456071 0.090077765 -0.009696608 -0.029715754 -0.01746913 -0.05201714 0.079103984 -0.043237656 0.017128643 -0.055840734 -0.026013253 -0.0020415124 -0.012523968 0.0050315703 -0.02390899 -0.01294144 0.0044930596 -0.0057835258 0.06431157 0.019513443 -0.014413406 0.013675588 0.009347776 0.03262212 0.004666762 -0.018135484 -0.079462446 -0.040560123 -0.07038798 0.024510687 -0.0017550718 0.030270278 -0.02491139 -0.026407836 0.012938624 0.11130604 0.0056473752 0.023987489 -0.009454074 -0.011492405 -0.04538077 -0.030989224 -0.053260174 0.0045059207 0.036955312 0.0018372652 -0.02577261 0.023382703 -0.06728445 -0.0023201345 0.021915495 -0.018702883 0.026282826 0.0142544145 -0.009925286,0.9233
2-oxoglutarate_dehydrogenase_E1,0.04640744 0.0096637625 0.010132764 0.038588833 -0.018182943 0.00045827663 -0.031020513 -0.029885028 -0.0018037728 -0.02983462 -0.027363874 -0.0050548073 -0.013305226 0.065180846 -0.001462165 0.004400393 -0.015589106 0.030419866 0.02455964 0.0197637 -0.042041358 -0.021485973 0.10305344 0.030256117 -0.009324308 0.0061642877 -0.03551163 -0.022109028 -0.021474859 0.026893832 0.016366573 0.0144318715 -0.104161195 0.014956723 -0.11608793 0.011516922 0.0020025368 -0.0014275619 -0.017261552 -0.0072479993 -0.008617835 -0.02909788 0.014949145 -0.021580514 -0.01826023 0.002928719 -0.0104149105 -0.009972126 0.010391212 -0.018583894 -0.024044605 -0.024137117 -0.04947844 -0.002307456 0.002396671 -0.019038133 0.0070375972 -0.013430447 -0.009455255 0.020480378 -0.02937449 0.03421996 -0.014672733 -0.002231296 -0.0004895963 0.0071795965 -0.0009053597 -0.008148933 0.028757755 -0.003933904 -0.03027098 -0.0327891 -0.23841144 0.012027924 -0.029671628 0.017970521 0.045445893 -0.020410534 -0.0032777104 0.053986516 -0.050829798 0.004334074 0.015861027 0.008125032 -0.008360854 -0.012242982 -0.0005808342 -0.006789518 0.0070214886 0.009725477 -0.02767162 -0.00019425186 -0.008247664 0.035041027 -0.108168 -0.030362593 -0.006563745 0.022653578 -0.012632959 -0.0039262534 -0.061206657 0.0072577563 0.021965839 -0.037142154 0.012609206 0.042712767 0.027681785 0.002049394 -0.016853264 -0.045646116 0.04338677 -0.0076624625 -0.045133725 -0.009218471 0.024353348 0.018146284 0.034761004 -0.05143373 0.027240258 0.00921021 -0.00048996817 -0.031466667 0.028679125 0.019863563 0.0054279095 -0.008336302 -0.025364261 0.002416194 0.0171233 0.002423878 0.035552606 0.023599824 0.016066097 -0.020330772 -0.017396744 -0.035433315 0.013777598 0.0055899066 -0.029200234 -0.00397779 0.0013639946 -0.06605011 0.024041647 -0.009197477 0.06781595 0.017256197 0.015241171 0.016775131 0.0030045116 0.024507238 0.022370227 0.03067686 0.016953185 -0.0085312445 0.008032833 -0.019812552 0.00941248 -0.0044858316 -0.045010053 0.0036328519 0.003945099 -0.0073134517 -0.052291933 -0.008099474 -0.0423638 0.009892574 0.0143602155 0.022140639 -0.015213127 0.01457786 0.033824794 -0.017922075 0.0419774 0.002432755 0.01726592 0.033748172 0.030196786 -0.0039825486 0.019717846 -0.026728284 -0.011189476 -0.04017512 -0.0167072 0.0025663194 0.03304655 -0.028912522 -0.0029739435 0.014105177 -0.08301331 0.017629495 0.09018036 -0.03266368 0.015208778 -1.6833592e-05 0.012967174 0.018367535 -0.032005455 -0.010387829 0.0001819492 0.0018700818 -0.06757262 0.0011385106 -0.020876918 -0.02141663 0.040487353 0.045609493 0.13987398 -0.024602309 0.002867266 0.0002531713 -0.03198557 -0.046590347 0.008268205 0.0065777856 0.035226014 -0.00074165175 -0.006033424 -0.061973687 0.02666729 0.002239666 0.029245 -0.04174177 -0.00041569184 0.06355235 0.026786327 0.018809596 -0.024307745 0.0049881428 -0.014250153 -0.0116172265 -0.011829443 -0.05284013 -0.022252738 0.015918558 0.012115787 -0.05708704 -0.012431242 0.013741915 0.028536612 0.023863126 0.0114139095 0.014312486 -0.034155462 0.01354583 -0.014811992 0.00903543 -0.01566875 -0.011071744 0.03205198 0.02912042 0.010796708 0.010082582 -0.00021514531 0.027143883 0.00042831796 -0.0069732545 0.0829218 0.023051625 0.022479698 0.040956773 0.008848789 -0.02848613 0.05608545 0.054930158 -0.031466283 0.029013688 -0.033593815 -0.06471253 -0.0020350374 -0.03377739 -0.0031640083 -0.022859529 -0.0115998825 -0.10058983 0.03829981 -0.039152153 0.065730974 0.01587616 0.00067274686 -0.11043132 -0.04641885 -0.052017774 -0.015354018 -0.054676026 -0.015114491 0.008085569 0.006160041 -0.0054990086 0.0013212963 -0.0048673116 0.016601704 0.04336688 0.01535365 0.023010314 0.19440633 0.015876837 0.014291139 -0.01261373 0.0035510499 0.04687134 0.003059979 0.020216625 -0.012254861 -0.007297291 -0.04092785 0.010026331 -0.021541731 -0.00590943 -0.005472215 -0.0017847037 0.007002408 0.0008711674 -0.034076143 0.00022661457 0.004032094 -0.0092823 0.04371731 0.013882343 0.0040272283 -0.021517223 0.0018781507 -0.04005992 0.016049959 0.052848436 0.02561761 -0.0037478178 -0.045020983 -0.00670983 0.009261707 -0.029160231 -0.032855853 -0.000453927 -0.0027919754 -0.018953837 -0.0526342 0.0071333875 -0.025437992 0.006313529 -0.062113427 0.015020338 -0.004782134 0.024454445 -0.028537033 -0.026819853 0.047985412 -0.001798778 -0.011986703 -0.006662105 -0.007992877 0.022954812 -0.005967036 -0.005133686 -0.029276527 0.019085193 0.059578717 -0.051886622 -0.051248096 0.011719361 0.038855683 0.03904406 -0.03736388 0.02024956 -0.0067777582 -0.0078053847 0.015603115 -0.0040161363 -0.05014697 0.09543392 0.064797424 -0.030695595 -0.012425009 -0.011700019 -0.010183057 0.017129926 -0.0057307794 0.008431585 0.015210704 0.017766492 -0.002866898 0.018206613 -0.012957104 0.0255947 -0.042796284 -0.019304115 0.002214848 -0.0031698053 0.03949523 -0.0114341155 -0.005235214 -0.023579411 0.015617177 -0.0033254416 -0.030450432 -0.029999254 -0.016565138 0.06616786 0.0068582776 -0.008295604 -0.0076672817 -0.038399544 -0.020738255 0.020045782 0.14890754 0.012910983 -0.080387995 -0.073745444 0.014807374 0.07126667 0.0060150367 0.026125604 -0.002504266 -0.029819526 -0.041609675 0.022333713 -0.022189992 0.029302187 0.058053076 0.007675501 0.024083123 -0.019228682 -0.020231787 -0.02822029 -0.018264137 -0.014611878 0.040682793 0.023047872 -0.025594627 0.003831644 0.03210808 -0.023252465 -0.15773854 0.007931271 -0.044821333 -0.02013611 -0.04076424 -0.04381819 -0.0028783865 0.110895395 -0.01935662 -0.010757705 -0.0041077635 -0.022677632 0.006995466 0.098653935 0.002491041 -0.0014906591 -0.00016676504 -0.022548446 0.007151176 -0.037238374 0.05391073 -0.021921122 0.014714105 0.017269528 0.013920935 0.010016401 -0.0034259385 -0.05147916 1.5923652e-05 0.023192495 -0.014344139 -0.0136377625 0.024194192 0.019984167 -0.038457837 -0.06361803 0.012047875 0.014474935 0.03831508 -0.027025452 -0.058621127 0.017985856 0.010173811 -0.040550917 0.027032588 -0.0024254143 0.0039413883 0.0098041715 0.019697772 -0.007334195 -0.019930357 0.0024159628 0.0047364566 -0.033351764 0.03191899 -0.027184019 -0.008489856 0.008506179 -0.04094502 -0.018193878 -0.046210345 0.038042244 0.0147112785 -0.017060183 0.02790105 0.008755351 -0.00741133 0.027281925 0.016863234 -0.009380556 0.009780104 -0.012563713 -0.035742804 -0.1090613 -0.047741134 -0.0067803445 -0.024021748 -0.066854194 0.020884946 0.033987645 -0.008667331 -0.021602007 0.01566287 -0.029708987 -0.01676069 0.012489043 0.026070626 0.0254555 0.020007355 0.011409025 -0.017249517 0.071340956 -0.00043644116 -0.015658582 0.06789594 -0.055941347 0.008108093 0.014078452 -0.0011969348 0.015034719 0.03785699 -0.026034063 0.014254788 0.021410316 -0.02009019 -0.017448647 -0.012203415 -0.044397328 0.005801157 0.009297508 -0.030458685 0.011164833 -0.023794293 -0.015205494 -0.0074946145 -0.037808135 -0.02017228 -0.024292814 0.0044144494 -0.007669354 -0.010289595 -0.02893712 -0.025330586 -0.010136551 -0.03288476 -0.04951835 -0.10889131 0.00010307785 0.025706192 0.009445008 0.030290138 -0.034569334 0.036604002 -0.00085760985 0.008841963 0.028037189 -0.022885054 -0.011956899 -0.01761192 0.020580415 0.02243384 0.012163559 -0.026435629 0.006116363 -0.015582273 0.013973475 0.018477866 0.0045810784 -0.068036735 0.03670698 0.020582147 -0.019444225 0.011221535 -0.0072263507 4.3283104e-05 0.03412556 -0.014934016 -0.066175334 0.01995207 -0.042783156 -0.024541495 -0.0010261434 0.036362343 -0.023252238 0.008107576 0.0076831593 -0.019228855 -0.022661068 -0.002519213 0.04265212 -0.004887524 -0.012967991 -0.008259216 -0.0035146482 -0.03768176 -0.031899903 -0.004987071 -0.008092457 0.009549631 0.044489503 0.019727638 0.0018686263 0.013328266 -0.007758304 0.06798321 0.12655687 -0.006337124 -0.034892954 0.022798693 -0.034577176 -0.033928048 -0.0027442744 -0.01673305 -0.005914418 0.050137196 0.01655222 -0.0096500125 0.0064363596 -0.017651726 -0.021768544 0.08583066 -0.012114512 -0.0041867965 -0.0010440398 0.017238302 0.026642904 0.050384022 -0.042321574 -0.011622981 -0.007943439 -0.047541298 -0.039740082 0.042764653 0.018875992 -0.0530767 -0.027714139 -0.017852833 -0.01172705 -0.05916645 -0.0127972 0.013277317 0.00036266813 -0.03536219 0.06506884 -0.020823663 -0.043343402 0.027024353 -0.019582871 -0.023113145 0.025460018 -0.0014921147 -0.0695291 -0.023651857 -0.005968497 0.039640576 -0.019581527 -0.025059488 -0.049936645 -0.023719108 0.004188635 -0.0045577106 -0.04224209 0.013978015 0.0017863262 0.020831808 -0.014269048 -0.023975099 0.018357811 -0.014025408 -0.019884512 0.009614344 -0.04996438 -0.04016553 0.045322094 0.03744983 -0.0032483889 -0.0042965477 0.017811859 0.021392874 0.0317512 0.00256538 0.033138502 -0.006760804 -0.00024216919 0.03166491 0.013769885 0.016024053 0.019586103 -0.049078103 0.008001162 0.02342262 0.023078479 0.0076765814 0.02707576 0.023336794 0.008040868 0.0065725595 -0.023925176 0.042068236 0.028838355 -0.029107252 -0.0050792065 0.016848832 -0.0017507153 0.003564587 -0.052188408 0.022063404 0.008767241 0.06717917 -0.0049624825 -0.031220227 -0.05291718 0.017754808 0.02795052 0.0049772924 0.016492195 0.026871268 -0.019329585 -0.018962916 -0.018564407 -0.024076365 -0.01214705 0.01157824 -0.011099956 -0.018625066 -0.018924536 0.009022054 0.0047765845 0.005645422 -0.018190326 -0.011415288 -0.0110997725 0.014944865 -0.0037225334 0.07425289 -0.026197117 -0.0502841 -0.033591628 -0.031105775 0.017279297 -0.0370884 0.054893054 -0.02548393 -0.07331505 0.030085985 0.00048035532 0.017167332 -0.03461737 0.042011965 -0.015553451 0.010146759 0.0035415587 0.0039067366 -0.011771371 -0.020112395 -0.0052699638 0.016629295 -0.047395658 -0.0077525964 0.039205212 -0.012734164 0.02157106 0.003332765 -0.026393004 0.026144242 0.056039345 -0.018961383 0.04617576 0.026881937 -0.0773195 0.017019589 0.029657701 -0.01879729 -0.008953407 0.030942589 -0.03234023 -0.043004844 -0.0030749254 -0.03260594 0.032194767 0.029730996 -0.003202292 -0.06451948 0.029123453 -0.0016487676 0.018431457 0.0042207856 0.04115469 -0.01636723 -0.05202459 -0.0014621314 0.006586923 -0.0008857973 0.015554268 -0.040263258 -0.00014004156 -0.026526874 0.0048328578 0.023323555 -0.0039739893 0.0042922045 0.0058966526 0.019274319 0.025557835 0.11253808 -0.024334848 0.011106251 -0.06627151 0.08967172 -0.0270172 0.011097163 -0.0032847011 -0.012650077 0.029826833 0.00476593 0.01792527 0.04643916 0.014691263 0.0011958771 0.015070688 -0.018448371 0.009349845 0.029441027 -0.043988887 -0.026695805 -0.04550545 0.017183805 0.0858548 0.001045191 0.00730515 0.007203313 -0.03695822 0.02680653 0.019874122 0.0077032964 -0.007007033 -0.045002405 -0.0029708508 0.009522838 0.0015909164 0.041693863 -0.06840081 0.02277673 0.002695085 -0.020631224 -0.0044550863 5.139944e-05 -0.029197773 0.021536049 0.020496788 -0.03801575 0.040827684 0.024042172 -0.0007254985 -0.009660809 -0.0049674916 -0.04192412 0.022098681 -0.0040837056 0.058398303 0.027506111 -0.018562067 -0.002751403 0.070640445 -0.009288312 -0.052971583 -0.018770775 -0.005053514 -0.008350093 -0.0069077 0.027926484 -0.0138457995 -0.010420885 0.0046718437 -0.033191036 0.0022925767 0.12295615 0.025947915 -0.0058764215 0.05293899 0.021029577 -0.012183478 0.0431593 -0.0059602773 -0.0143319005 0.014478442 0.0021135742 0.027113415 0.09827238 0.032300066 0.04073941 0.081954345 -0.06773123 -0.01149492 -0.06043627 -0.032183718 0.019859908 0.024573572 0.056009334 -0.08428259 -0.020083776 -0.017241642 -0.020364834 0.107085824 -0.029750904 0.020043222 -0.068820104 -0.031459555 0.008354168 0.02837057 0.036258396 -0.02609708 -0.01443439 -0.00092098286 -0.015566318 0.008548393 0.02059023 -0.041061617 0.012749127 -0.0077433004 -0.0050032507 0.055071633 0.01576453 0.008393711 -0.006303227 -0.010924265 -0.008422258 -0.050913624 0.019004699 0.0639554 -0.02245131 -0.01679771 0.013363846 -0.04155694 0.0143818995 0.0029890626 0.0012518791 -0.12352693 -0.049700875 0.00902086 -0.025181377 0.016451139 0.020753045 -0.11810581 0.0013224941 0.018624036 0.038853362 0.0616012 -0.0018031275 -0.010030617 0.015728153 0.01409021 0.0038921789 -0.00095606886 0.022157928 -0.0047810776 -0.048360717 0.011144478 0.0154160075 -0.020709462 0.02033359 0.006583479 0.011163393 -0.004082051 0.0045796013 0.019453399 0.0050297403 0.01737959 0.025628932 -0.026938861 0.021921698 0.08002925 0.04354664 -0.025200803 0.021675866 -0.0102694705 0.016720116 0.015904296 0.014457855 0.020020302 0.028991725 0.015431632 0.0680369 -0.028146004 0.024292137 0.008273821 -0.04282659 -0.037740137 -0.008116227 0.0044106394 0.05904816 0.007210268 -0.014811333 -0.003596606 0.11314142 0.035031512 0.053852443 0.027565716 0.0008869722 -0.0061978013 -0.053645167 -0.035426587 0.052170083 -0.012655825 -0.017548159 0.0067078504 -0.0033552803 -0.046802007 0.06477584 0.013493973 -0.0014871019 0.012642627 -0.0042983885 0.06102993,0.9528
2-succinyl-5-enolpyruvyl-6-hydroxy-3-cyclohexene-1-carboxylic-acid_synthase,0.03235569 0.029910691 0.0071578375 0.024474937 -0.00064534723 0.015854351 -0.03705711 -0.078688264 -0.0033497596 -0.008956775 -0.014404171 -0.006961277 -0.0063192165 0.046260696 0.03387638 -0.032799534 -0.005048213 0.019555882 -0.0027184396 0.015978133 -0.0199555 -0.017948607 0.07080528 0.04918056 0.012959926 -0.0022945215 0.0034825818 -0.024547555 -0.012845938 0.008075826 -0.0016702353 0.024636537 -0.109618165 -0.010235655 -0.10569615 0.029366437 -0.0062199384 0.00043431023 -0.0032215703 0.0015186564 0.016133675 -0.022317557 0.006995304 0.02265817 0.010084193 0.00061754655 -0.009003965 0.022259092 0.0026020417 0.030732563 -0.048704255 0.0021278595 -0.04605138 -0.030788342 0.06987644 0.009315018 -0.011231904 -0.022588965 -0.016695153 -0.018039506 -0.01318338 0.041516826 -0.018482964 0.0015491606 -0.0015145269 -0.016428886 -0.016693654 -0.025535354 0.013275061 0.00074630865 -0.06388372 -0.0013878609 -0.1254351 0.04282103 0.009790866 0.03936485 0.07176917 -0.025303906 -0.050165653 0.038086876 -0.0010958713 -0.02305319 0.027692145 0.030136133 0.00021698722 -0.0174304 0.03715316 0.013798798 -0.007860778 0.0077548036 0.015410342 0.016351856 -0.022664368 -0.0102985315 -0.039705466 -0.029602643 0.016366286 0.087622724 -0.030987808 -0.03870714 -0.03213297 0.025260437 0.014103593 -0.04097086 -0.019578017 0.05607849 0.015449511 0.0052442104 -0.048737824 -0.069847144 0.00040947855 0.0022362042 0.0016758486 0.028914927 -0.01878234 0.038415663 -0.008017873 -0.010248561 0.0038049805 -0.0049162894 0.012713813 -0.008382133 -0.010797682 -0.0004645256 0.0007317388 0.028695399 -0.012478733 -0.0029145314 0.0062693306 0.0031148132 0.035825983 -0.0344498 -0.015026911 -0.038805388 -0.03967438 -0.009535638 0.013920359 -0.0061316774 0.0029978442 -0.00014289803 0.013748972 -0.015242323 -0.017760264 -0.03298133 -0.026220735 0.027908122 0.060822695 0.001965118 -0.038637333 -0.042307932 0.022754911 0.04245856 -0.0013113454 0.013645243 0.04114553 -0.033944402 -0.020370709 -0.0051412536 -0.05658799 0.012878556 -0.013514953 -0.0020197066 -0.051911607 0.008440093 -0.048892178 -0.0043168887 0.0037522549 0.0068381494 -0.020629333 0.056286413 0.032815564 -0.013185094 0.016287623 0.00040422205 0.047397353 -0.013273512 0.0002644759 -0.0015361971 0.014590279 -0.023209201 -0.024009157 -0.04116567 -0.003057036 -0.017937593 0.021152988 -0.002155461 -0.0007295642 0.024743702 -0.033205397 0.054827116 0.078189164 -0.028895365 0.010736953 0.034780648 0.0065756813 0.011875043 -0.022150729 0.016310694 -0.012981014 -0.019697053 -0.025748221 -0.014159541 0.017135186 0.009204135 -0.0066389227 0.0028192964 0.037228268 0.004486816 -0.019978218 0.0025873478 -0.013518856 -0.024502719 -0.03207923 0.03425812 0.022964794 -0.015263419 -0.0022177172 -0.016387057 -0.029689027 -0.024965579 0.0020465625 -0.0075853444 0.037615743 0.05923417 -0.0042070807 -0.030115172 -0.0060887476 0.0272573 -0.008342219 -0.043739762 0.015625812 -0.024915354 -0.015070731 0.045975257 0.028948663 0.0016860404 -0.030056681 0.021027332 -0.011477893 0.0124949245 -0.0435482 -0.010892788 -0.00834609 -0.022801364 -0.03341688 0.004930856 -0.013198409 -0.049120367 0.020689124 -0.0034636876 0.0081095 0.02915209 -0.01382806 0.027315581 0.047472082 -0.037905976 0.05187856 0.019367913 0.024968749 -0.014727444 0.028136194 -0.0040205 -0.036385998 -0.00055230607 -0.054453485 -0.019579068 -0.02332433 -0.018474573 0.007871699 -0.06707669 0.017515078 -0.046309378 -0.0116155995 -0.10564636 0.038293857 -0.051236194 0.026181195 0.002675983 0.0004705375 -0.07774877 0.0073369923 -0.026378924 -0.042862475 -0.050723594 -0.015096607 0.027717052 0.049000174 -0.012556914 -0.014284695 0.0065571186 -0.03922725 0.043457568 0.0038889737 -0.012033208 0.2088258 0.017199967 0.020470718 -0.047383416 -0.027393252 0.03167915 0.004709541 0.017034177 0.006821206 -0.047460634 -0.003236342 0.02510973 -0.016494242 0.0051293527 0.010491398 0.0007274603 -0.026855642 0.021486284 -0.036106877 0.019088496 0.007940243 -0.034287274 0.027622899 0.032622006 -0.039278343 -0.0143411225 0.009432066 0.0107847825 -0.025077177 0.031204903 0.020218372 -0.02527637 -0.05386067 0.026081638 0.004468172 -0.019678118 0.009839907 0.005728722 -0.02976873 -0.016932145 -0.045176126 0.023638237 -0.023869436 0.033778533 -0.021310931 0.006213503 -0.0053010797 0.0093591865 -0.01520341 0.006402276 0.038361326 0.058902137 0.026365463 -0.0228985 0.006250048 0.03014905 0.006467885 -0.009628295 0.02134296 0.056285575 0.05329402 -0.017415036 -0.02297182 -0.013200452 0.018723963 0.035320837 0.010690742 0.014764064 0.0034532873 0.0047229542 0.0017883977 -0.007879731 0.0064109387 0.01600263 0.05347969 -0.010323125 -0.03875726 -0.019747417 0.020011473 -0.0026787978 -0.027887078 0.010444061 0.04523842 -0.0051666964 0.003333024 0.040965207 -0.014741837 -0.011223431 -0.06928732 0.0047762427 0.013239699 -0.00015888785 -0.0038705757 0.010781556 -0.060045287 -0.014545361 -0.005118754 -0.019784 0.028475307 -0.041706666 -0.018129794 0.0573094 0.0125347935 -0.024424585 0.0039916374 -0.004991174 0.0028432803 0.009788293 0.053892076 0.017074151 0.00021169335 -0.08933825 0.0060523176 0.07353769 -0.0017208863 -0.02172753 -0.00570265 -0.01893612 -0.0075936606 -0.019683838 0.0010507085 -0.027708383 0.025530698 0.004940213 0.022726206 -0.0031721946 0.010658072 -0.012440163 0.010638925 -7.973671e-05 0.041377522 0.013647876 0.034181815 -0.013689295 0.027340984 -0.012435966 -0.1273226 0.020012297 0.017914081 -0.026667513 0.040108185 -0.030669626 0.08075622 0.16358 -0.02408557 0.008318312 -0.027868213 -0.010260228 0.0045074597 0.11332759 -0.0052099503 -0.02350294 -0.013636405 0.006465877 -0.025448544 0.003475903 0.011101802 0.008806205 0.0346198 -0.0011506373 0.0037225366 0.0024638618 -5.0580966e-05 -0.028527971 -0.029975684 0.06379427 -0.032562472 0.011310408 0.016508913 0.04349841 -0.02085404 6.0409246e-05 0.06275972 0.012496899 0.0033860703 -0.0037935642 -0.01854369 0.004018369 0.01653216 -0.0066441274 0.015868848 0.0018525759 0.016505143 0.07226296 0.07600763 0.00101453 -0.025413612 -0.023414053 -0.01847713 -0.039360113 0.0046410467 -0.0035095443 -0.007130333 -0.014732984 -0.02429843 -0.020586018 -0.027453963 -0.025121618 -0.036979783 -0.015230708 0.019868106 0.012328473 -0.011236347 0.008886935 -0.01801905 -0.032184128 -0.025395673 -0.010492828 0.0057318383 -0.07996407 -0.04651624 -0.038674455 0.008568947 0.0022616747 0.030655412 0.023110699 -0.021875741 0.021978434 -0.029609533 -0.0051953774 -0.0032328216 0.0097375 0.018159322 0.007881294 0.0030003216 -0.017924123 -0.018979022 0.05993771 -0.023367545 -0.029640716 0.0075579546 -0.031315133 -0.014948549 -0.008900599 -0.010277802 0.008394428 0.039760727 -0.008904703 -0.022954566 -0.022455215 -0.027558552 -0.0069770124 -0.040723648 -0.020283636 -0.01911433 0.052011363 0.0046821726 0.027543621 -0.0225973 -0.022286471 -0.017788358 0.00932274 0.013882443 0.0048519643 0.004569573 -0.026118943 -0.019004403 -0.020363178 -0.020114087 -0.04348776 -0.016039126 -0.057936527 -0.049202137 -0.015753862 0.014503977 -0.0041990243 0.04572611 -0.020944217 0.03615002 0.010133777 0.006288894 0.047814265 0.007617962 0.008070196 0.0057667387 0.11174421 0.019065328 -0.026482716 0.04362891 -0.026845474 0.005654804 -0.03478698 -0.026798088 0.0046031075 -0.027007148 0.0132095115 0.0060096625 -0.024375573 -0.057692137 -0.028165247 0.028059917 0.07298754 0.009055965 -0.029583985 -0.0068294136 0.010651198 0.0011786078 -0.016412947 0.0408429 -0.01533555 0.039386425 0.019649599 -0.05809637 0.0028517805 -0.04248978 0.037728578 0.011642063 -0.017182752 -0.0016578665 0.003979218 -0.022657264 -0.019798564 0.049569175 0.03522265 0.004622497 0.029637102 0.024612 0.0416445 -0.0053906883 -0.018870555 0.008329312 0.12875088 0.016517423 0.038777173 0.037986863 -0.017787782 -0.013994664 -0.01106688 0.10336652 -0.03744572 0.028934676 0.039019763 0.017427715 -0.0038889202 -0.0041586775 -0.015451712 0.06934651 0.024270391 -0.0012541342 -0.053361177 -0.004538296 -0.034665793 0.09361991 -0.03796551 -0.00015878025 -0.0017469291 -0.005298447 -0.046901017 0.04379384 -0.008121026 -0.034764707 -0.015786277 -0.0052240463 0.0097913835 -0.0151297655 -0.02834984 0.010296869 -0.013166111 -0.03946062 0.046907622 -0.021195214 -0.020936465 0.0769309 0.05131336 -0.0047596563 0.03926934 -0.028331636 0.00979377 0.0029630908 0.005966147 0.012289024 0.01114134 0.00827871 -0.06624171 0.05546517 -0.013862627 -0.0041621756 -0.03947998 0.024054335 -0.0021145253 0.030643264 -0.029706106 -0.0027028965 0.016622849 -0.017383192 0.0028739448 -0.031458754 -0.025001397 -0.017064499 0.0755534 0.007169773 -0.00034701635 0.024513045 -0.027533144 0.018158324 0.008888369 -0.01655797 0.032036465 0.006528288 0.0013485152 -0.0020113233 -0.025460796 0.025491875 0.026916686 -0.03646724 0.018021198 0.024968063 0.012629134 -0.01164874 0.01046408 -0.0069770543 0.0021527398 -0.0031695047 -0.013870545 0.0809742 0.035835095 -0.041908327 -0.008285897 0.0086159455 0.02486597 -0.00089830894 -0.002488207 -0.025529718 0.022301354 0.026103256 0.0044392925 -0.030197913 -0.008438857 -0.022550536 0.06137148 -0.019759933 0.022634597 0.01390188 0.0069564385 -0.014759368 -0.032384142 -0.021951793 -0.015064467 0.035516005 -0.040253002 0.01996398 -0.013434988 0.013965462 -0.03183655 -0.02495798 0.027469793 0.022014314 -0.023260456 0.009810359 0.0029870518 -0.0054369313 0.029063761 0.031640273 -0.005150242 0.019842483 -0.00446025 0.045226894 0.0040757973 -0.01853809 -0.050583605 0.020939616 0.015290149 -0.003615319 -0.014471639 0.021595914 0.02606624 0.03883134 0.0030288391 0.02029015 -0.02854916 -0.028850928 -0.011457724 -0.040267278 -0.008896742 0.012654961 0.024409931 -0.030745946 0.019995347 0.037184417 0.0018419608 -0.012044044 0.02350355 -0.04197751 0.021803712 0.012261091 -0.017944634 -0.007635154 -0.016233832 -0.0042478624 0.03727564 -0.008857906 -0.07552667 -0.031147873 -0.0026161964 -0.010629132 0.0138426 0.02895052 -0.049725223 -0.0049829124 0.05225668 0.031208688 0.009996483 0.012498944 0.029737325 -0.010547476 -0.05797035 0.008023878 0.00037486115 -0.02192288 0.034625504 -0.025414942 0.033686567 -0.047155842 0.0037679619 0.04744432 0.029189384 0.0017329847 -0.010368826 0.012401074 -0.007254011 0.11802563 -0.0073682945 -0.006273424 -0.1151402 0.005751138 -0.05258596 0.031096652 0.0072970036 0.020565284 0.026615456 0.0005777043 0.025179716 0.019835787 0.01552767 0.003627524 -0.011165537 -0.042999253 -0.0046192612 0.026949184 -0.053305056 2.6230367e-05 -0.04791941 0.017523276 0.13252193 0.03558643 -0.029812079 -0.008860026 -0.056580182 0.044389825 0.05802033 0.0015278498 -0.003572588 0.00043309963 -0.016653528 0.018064018 0.02325736 0.0102929035 -0.030137757 0.03052665 -0.04410414 -0.0021021387 -0.0049342103 0.020035338 -0.008702049 0.012453994 -0.04081302 -0.04380725 0.0036730228 0.021643424 -0.0277327 -0.022101639 -0.020048441 0.007985822 0.02471236 -0.007768064 0.1138502 0.022634437 -0.040649585 -0.0015153737 0.07025932 -0.022306757 -0.06793475 -0.0008736213 0.01138388 -0.08708834 0.008866437 0.0059419405 -0.021821348 -0.011680063 0.003614155 -0.036205377 0.006877916 0.062118497 0.023638349 -0.009326602 0.035167545 0.023567539 -0.0016603101 0.036831155 -0.027422467 -0.008695645 0.009645038 -0.01457832 0.0051677516 0.1021503 0.027441397 0.02196256 0.012128706 -0.08619382 -0.0056012855 -0.025386848 -0.019636812 -0.021829592 -0.02420375 0.010216094 -0.051660016 -0.03593902 -0.004898982 0.0026492989 0.13367471 -0.022448886 0.017122757 -0.06377865 -0.037389442 -0.0009055987 0.0069243773 0.02068892 0.013165454 0.015042847 -0.011582678 -0.019682879 -0.011488952 0.016127171 0.016881634 -0.028144607 -0.034681693 -0.016997945 -0.010049764 0.0036178865 0.0019366669 0.014922635 0.028456865 -0.000888397 -0.02846956 -0.012390554 0.038132828 0.030563153 0.0019437888 -0.025517002 -0.013440189 -0.009460817 -0.023425879 0.015800182 -0.1212823 -0.022105442 0.007544541 -0.02444511 -0.0068517593 -0.01347307 -0.05979373 -0.01885963 0.019003525 0.023327889 -0.017348416 0.016276535 -0.035300292 0.016556842 0.04090893 0.06269738 0.001458605 -0.016549014 -0.02028449 -0.08648675 0.01342738 -0.027680725 -0.010683971 0.05090603 -0.018938035 0.005117338 -0.018458555 -0.012445351 -0.043484975 0.023930114 0.0361192 -0.034508836 0.02175741 0.016829504 0.083447814 0.007141142 -0.019525882 0.0012848021 0.018589592 -0.0027918278 0.012032729 0.008940801 0.011487667 0.012228431 0.015759528 0.01721227 -0.0021425975 0.018268604 -0.00014607572 -0.050072547 -0.070396416 -0.026875695 0.028809132 0.031005751 0.015353686 0.008498925 -0.0007157423 0.10668456 0.023195429 0.040708676 0.03185988 0.012915494 0.009475564 -0.06607722 -0.023899892 0.0016568233 0.02445706 -0.021539018 -0.00919335 -0.015104265 -0.05401071 0.015537056 0.03518622 -0.011585509 0.00904443 0.03487454 0.022385396,0.9145
3-methyl-2-oxobutanoate_hydroxymethyltransferase,0.045139115 0.009253459 -0.0059298533 0.0042524682 -0.01971636 0.045807857 -0.053135592 -0.08000904 -0.027055832 -0.04248177 -0.022637228 0.010899007 -0.0015227026 0.07338724 0.02286678 0.0074040955 0.0014699657 0.032162007 0.011858746 -0.01186304 -0.032392073 0.016530637 0.09816299 0.03103777 -0.01715123 0.0035931286 -0.02352714 -0.06609797 -0.012340817 0.026500395 -0.049344987 0.026066504 -0.11344776 -0.009259503 -0.11422855 0.0053947303 0.009937381 0.001357943 -0.001488464 -7.913202e-07 -0.0126775 -0.017235555 -0.0063580167 0.007963336 0.004362919 0.01434817 0.016867029 0.0020363876 0.017083218 -0.017760927 -0.02064667 0.02633869 -0.017079787 -0.008645519 -0.009724834 0.013600643 0.007912071 -0.013360498 -0.023160722 0.034664944 -0.025982529 -0.008169361 -0.033866998 0.005031517 -0.0011368936 -0.018111156 -0.010740034 0.0034611092 0.03291537 -0.03637061 -0.03794312 -0.008506088 -0.18768276 0.008479392 -0.018797483 0.047828875 0.039854787 -0.036347844 0.011849829 0.04078671 -0.019989472 0.033532985 -0.019218497 0.02301123 -0.011545768 -0.039645117 0.03311914 -0.042478297 -0.031104947 -0.007374556 0.013337439 0.045668717 0.03395709 -0.008884005 -0.034317542 -0.03991642 0.018687468 0.039361857 0.048098993 -0.014972062 -0.028038496 0.012927182 0.016572084 -0.03601055 0.0060201916 0.023715176 0.007855483 0.012838741 -0.014000305 -0.07739591 -0.014885052 -0.009464105 -0.031054668 0.018951416 0.0063603274 0.009183607 0.0035793458 -0.037308108 0.04139921 0.0007991107 0.038508367 -0.0233705 0.022326957 0.00332493 -0.012110476 -0.036285885 -0.024055725 -0.02638895 0.017655632 -0.020178987 0.013064714 -0.014886624 -0.008556496 -0.013866162 0.0059555564 -0.04245581 0.0021909566 -0.0344082 -0.014058222 -0.0017988362 0.013402491 -0.022847699 0.021629022 -0.013100017 -0.01908208 -0.012759191 0.02099718 -0.011816472 -0.006174657 -0.001548618 0.05238919 -0.014348998 -0.017425051 -0.0045979274 0.053881254 -0.013388372 0.0013865017 -0.022872178 0.0067445375 -0.01654518 -0.01343927 -0.004718665 -0.039387576 0.01369516 -0.074152775 0.020048883 0.029041242 -0.03643857 -0.0203771 0.03124679 0.027921362 -0.01572306 0.019573456 -0.026593395 0.019632556 -0.011167213 0.035913877 -0.014216586 0.06397338 -5.007929e-05 0.011651507 -0.030401966 -0.012715936 0.018011004 0.025803458 0.0011712469 0.018019402 0.018019784 -0.07536697 0.0031514578 0.097411014 0.004403436 -0.03052987 0.021364646 0.017243108 0.052079026 -0.022546904 0.00050987815 -0.023376776 -0.008090729 -0.008745719 0.028460188 -0.009729584 -0.03590186 -0.0027530978 0.0288027 0.110095106 -0.042970005 -0.019767202 -0.008359182 0.010774603 -0.076538324 -0.00322572 0.03719699 -0.015656972 0.007380076 0.008263892 -0.034231443 0.013737963 -0.01391217 -0.009485167 -0.0066568586 0.024103241 0.079796925 0.031661708 -0.0053328103 0.005848962 -0.028382355 -0.004059663 -0.00046013782 0.009873133 -0.027781297 -0.045097645 0.026029296 0.035130482 -0.038988866 -0.009581418 0.01135886 -0.028615844 0.016736165 -0.00981319 0.0033685095 0.012659138 -0.026315745 -0.00035116685 0.018559273 -0.033579994 -0.02907706 0.030921802 -0.00021896049 0.018686384 0.014833678 -0.0252978 0.018437494 0.03908722 -0.030415274 0.07265006 0.008380994 0.026938682 -0.03322235 -0.007449214 -0.0019458806 0.010282958 0.035572913 0.022039874 0.014848531 -0.052959256 -0.026509501 -0.00051736366 -0.031617176 -0.017070899 -0.00012378169 -0.030272007 -0.10041572 0.0011924709 -0.016272487 0.036442745 0.0014496008 0.0021552334 -0.11814349 -0.0024711876 -0.013553071 -0.030458966 -0.04814024 -0.027037552 0.021408612 -0.007051011 -0.010825834 0.01420581 0.014001514 -0.035602808 0.050351746 0.0071863728 0.01955919 0.19443105 0.019704245 -0.003063762 -0.048408475 -0.019427355 0.033891197 0.020014817 0.010642262 -0.0045521376 -0.061105907 0.026291084 -0.0005014391 0.010171724 -0.0061217505 -0.021466365 -0.005830247 0.016055869 0.010418995 -0.012404942 0.0117833465 -0.009612434 0.006976286 -0.021741884 0.059019696 -0.029275324 -0.012081226 -0.0104475 -0.061632328 -0.012967282 0.022312036 0.037172504 -0.027018666 -0.062588565 0.009528524 0.06280685 -0.03192292 0.016321264 0.008903019 -0.0041161827 -0.0007085436 -0.029285446 -0.0067012426 -0.044089805 0.028938705 -0.04091129 0.018725162 -0.017814472 0.042049427 0.028497146 0.052453775 0.04125952 0.021868289 0.0031034672 -0.033254955 0.0017464025 -0.00594968 -0.0041108667 -0.0011909857 0.00044877428 0.01057974 0.02488585 -0.011501619 -0.013005373 0.014164036 0.033808436 0.054408822 0.016005713 -0.020222956 -0.029905388 -0.0248056 -0.0068182033 -0.0017800127 -0.011309481 0.056929845 0.039675314 -0.025150204 -0.019135702 -0.029658213 0.031108696 -0.010316542 -0.012994393 0.008368908 0.010100104 0.028390108 0.009632036 -0.018575724 -0.031320907 0.0044831596 -0.009449956 0.005218174 -0.00047672156 -0.005942511 -0.021345275 0.018425869 -0.029073853 -0.03872552 -0.007571265 -0.038720865 -0.016892383 -0.007715223 -0.023022486 0.06076252 -0.010796773 0.0041143834 -0.0065403283 0.0041220025 0.012888667 0.02369542 0.14913532 0.02964284 -0.03602617 -0.0765405 0.00031176463 0.07538301 -0.013314044 -0.037264835 0.0063377875 -0.02529745 0.0046145916 0.0068178917 -0.028847398 0.008856411 -0.0025225782 0.002295166 -0.03650144 -0.028217768 0.021403827 -0.021990987 -0.00012202069 -0.027248299 0.03984922 0.0041188556 0.004864113 0.012825282 -0.0007091224 -0.013423469 -0.09168678 0.022284528 -0.024072807 -0.008808426 -0.0029408392 -0.062028274 0.006143504 0.09940621 -0.026106933 -0.014701251 -0.01990349 0.008131628 0.019537577 0.12013759 0.010548233 0.0024657988 0.011023436 0.014886623 -0.021079034 0.0065872944 0.008956556 0.022685671 0.018741438 -0.008560803 -0.0012001242 -0.045489594 -0.020153591 -0.046494972 -0.008813778 0.036690835 -0.00879863 -0.004546406 0.046658725 0.009628051 -0.024979295 -0.025374403 0.013952526 -0.004494606 0.023216017 -0.0116138 -0.006825583 -0.024198204 0.0187531 -0.0035685354 -0.034735713 -0.01675158 0.012213488 0.004644429 0.006085336 -0.029250678 -0.050300505 -0.0057950593 -0.016996192 -0.06019947 0.0035549644 -0.049835328 0.023546906 -0.039836343 -0.02854878 -0.01889415 -0.008978778 0.05335607 -0.04281561 0.00028487676 0.024889287 0.025232475 -0.020170676 0.0013970357 -0.018519154 -0.035315517 0.008249672 -0.0037085079 -0.015164963 -0.034523204 -0.07345908 0.0052933423 -0.0058361413 -0.05374376 0.008049308 -0.021992126 0.026400326 -0.022902122 -0.04393827 -0.041540798 -0.0046179336 0.007878425 0.0027258617 0.021075 0.022828672 0.0047402536 0.00656124 0.10187487 -0.0028348719 0.01229566 -0.034480985 -0.027909834 -0.036027357 0.004837002 0.025897484 0.0074956524 0.05615815 -0.048981354 0.009080167 -0.0054583782 -0.028814716 -0.023037704 -0.025488304 -0.001967544 -0.0077028642 0.080586545 0.01630024 0.012435059 -0.031156164 0.01395005 0.024580667 -0.04656673 0.005752184 -0.018469574 -0.01716318 0.015071824 -0.02645297 -0.023092031 0.0029874279 0.0060654585 -0.003102221 -0.05622061 -0.0725454 0.025394974 0.012556478 -0.005713994 0.004877138 -0.0056346105 0.035160806 0.028995229 0.03632228 0.028939595 -0.015055198 0.020636085 -0.07250723 0.06541945 -0.0056632105 -0.015078088 0.059536774 -0.041985277 -0.005870433 0.008374429 0.022899808 -0.064992614 -0.056884654 0.010225441 -0.004619293 -0.0751758 -0.0106189735 0.0055515487 0.017870406 0.006928464 -0.010452489 -0.051895212 0.023686351 -0.08371555 -0.0022025448 -0.0149599295 0.015290619 0.0021376174 0.016993398 -0.011417058 -0.046285648 -0.0073397555 -0.003733675 0.0024203742 -0.031679586 0.014779703 -0.029445503 -0.028492434 -0.009920047 -0.027727395 0.02154482 0.0011383625 0.020875923 0.01170499 0.006184586 -0.021214552 0.011434984 0.0015676292 0.036800902 0.13018236 -0.028715547 0.022570143 -0.00450077 -0.059878275 -0.021159686 -0.0022512733 -0.030789707 -0.020695454 0.0034750814 -0.031314433 -0.004410317 -0.011535943 -0.020232208 -0.015117643 0.04861823 0.021729099 -0.03560895 0.020061048 0.0321529 0.0024905738 -0.020614792 -0.044392597 -0.005911758 0.012734475 -0.029726189 -0.04382052 0.0071516144 0.043816067 -0.07408768 -0.014908846 0.025706025 -0.018397542 -0.016907394 0.017456558 0.052739233 3.3947887e-05 -0.03082552 0.088321574 -0.017926732 -0.03832995 0.047729895 -0.037553094 -0.04994468 -0.0040981076 -0.049703296 -0.013182797 0.023201345 -0.028334778 0.022893574 0.005844504 -0.024998149 -0.0410118 0.008490998 0.026834153 0.00017195786 -0.044177424 0.0014575493 0.0038603602 0.008840563 -0.013903962 0.0059083323 0.022814708 -0.00906345 0.007911429 0.019187614 -0.056681436 -0.050180607 0.09316624 0.016739005 -0.022456538 0.010007274 0.0053857304 -0.016074399 -0.006859077 -0.0020931556 -0.005434393 0.05342094 -0.010398683 -0.0021630423 0.040900014 0.03514171 0.03838704 -0.061704267 0.01848132 0.04438268 0.007220361 0.04076389 0.019085724 -0.029591877 -0.010672134 -0.022852559 -0.0031421322 0.031302348 -0.005654066 -0.044672985 -0.015952531 0.027500886 -0.009171933 0.025288124 -0.034115598 0.0016256116 0.01067998 -0.0035817823 0.010754471 0.009859428 -0.016126342 0.008158927 -0.00070402666 -0.0005492626 0.0011757358 0.021650251 -0.020699985 -0.0107697565 -0.043169867 -0.043205272 -0.021703087 -0.0021441458 -0.046197906 0.02770799 0.0158136 0.0020118672 0.008007385 0.008162232 0.047865756 -0.00040233866 0.0063389675 -0.00073468016 -0.0065705255 0.064837456 0.018647596 0.011350362 -0.0015441442 -0.015458908 9.736603e-05 -0.008100005 0.039986707 -0.01900002 -0.12972416 0.0039230837 0.049286094 0.008603036 -0.010770235 0.001670167 0.005946874 0.004833256 -0.014719208 0.013366764 0.033411507 -0.0020514098 -0.013446902 -0.0112688625 -0.025353687 0.016168686 -0.014440571 -0.0019457584 0.018039318 0.024571454 -0.014432991 0.03563687 0.04047357 -0.024827816 0.03334428 0.008711291 -0.014421014 -0.0009423475 0.016490463 0.018228082 0.01183705 0.0057586133 0.09526544 -0.004219265 -0.016294584 -0.0014341654 -0.0069852117 0.036977466 -0.030834615 -0.020729754 0.013143113 -0.034277022 0.035046842 0.024370661 0.05190838 0.023847807 -0.023321569 0.015635766 0.017554145 0.022737857 0.016125798 -0.0026061465 -0.020659579 -0.016411053 -0.028573412 -0.020766558 0.024277268 0.039063945 0.009965946 -0.031896282 0.018795816 0.118578814 -0.012596427 0.039282925 -0.09093727 0.050120216 -0.00908602 -0.003663871 0.0296828 0.017620264 0.022091098 -0.010256706 -0.011351396 0.02016399 0.017082777 0.008147133 0.004269464 -0.012385573 0.0024149972 -0.005792033 -0.046751212 -0.013349984 -0.05192007 0.056754626 0.11914415 0.0073943865 -0.041724663 0.004971835 -0.021962514 0.0038273835 -0.012190284 -0.008989564 0.00995831 -0.050054386 -0.01403239 -0.0038265416 0.006642663 0.03788707 -0.055053473 0.006398687 -0.034881547 -0.03260166 0.0075548165 -0.015156535 0.03640991 0.009797548 -0.009600527 -0.00085582986 0.0030416655 0.012647748 0.008448014 -0.01389331 0.0004688615 -0.040739376 -0.013353897 0.0028553766 0.062790394 0.061715957 -0.027447581 0.01215342 0.04607253 0.009499881 -0.07442242 -0.030159434 -0.014059853 -0.07492211 -0.022322666 0.054150723 -0.026388237 -0.007659675 0.018838158 -0.0022911911 0.023120722 0.069829404 0.0006517383 0.005485091 0.010251516 0.021692218 0.017269004 -0.015276575 -0.014802557 -0.019392487 0.005734354 0.010670341 -0.01704899 0.100045346 0.043439955 -0.040292405 0.03548717 -0.0910686 -0.005734671 -0.04579723 -0.002548535 0.0076474748 0.027397232 0.0094206575 -0.020657176 -0.02070306 -0.048982672 -0.014970549 0.13202196 -0.039657634 0.02365203 -0.0782311 -0.035810154 0.017233238 0.05189022 0.04678185 0.027296176 0.010789773 -0.009793841 0.00167997 -0.00115823 0.039336223 -0.001846789 0.0089428965 -0.001349243 -0.004336097 0.037602745 0.015121544 -0.02512292 -0.008796493 0.010860846 -0.013463227 -0.010354845 -0.0117417555 0.00071933784 0.016438207 -0.03504783 0.012332075 -0.021577714 0.02297743 -0.028971123 -0.02136236 -0.1281971 -0.047218133 0.024592338 -0.066943996 -0.009076276 -0.011797792 -0.05900324 -0.03081044 0.033205137 0.045422968 0.029839246 0.006499234 0.0005576759 0.025148228 0.0439135 -0.011923591 0.0282689 0.014276486 0.0072771595 -0.07315909 0.023145756 -0.017305704 -0.010523368 0.06507389 0.0018723906 -0.0062304195 -0.01265225 -0.0036889012 0.028570846 -0.018844381 0.029487882 -0.051129237 0.017661475 0.017492851 0.07860667 0.042455323 -0.0070007825 0.03066523 -0.033797648 0.0067210468 -0.02122332 -0.029986974 0.004074595 0.01570243 -0.009280633 0.05360484 -0.006675717 -0.018946573 0.006090374 -0.016937777 -0.076719746 -0.035539106 0.01580901 0.011746291 0.014737233 -0.037380904 0.011353024 0.11154931 0.058271695 0.039410148 0.023767598 0.0027852743 -0.010039124 -0.06430229 -0.036039904 0.01224612 -0.015373573 -0.025296027 -0.0017035841 -0.026537554 -0.04190032 0.03391138 0.02522978 0.00023421951 -0.014149755 0.01736172 0.026790442,0.9646
4-diphosphocytidyl-2-C-methyl-D-erythritol_kinase,0.09020293 0.009050737 0.0010096369 0.007689985 -0.049785644 0.06486041 -0.022341095 -0.059226926 -0.00806519 0.0070884 -0.017567292 0.048872136 0.020629155 0.064246595 0.03370594 -0.015441474 0.025671856 0.0073319445 0.010839412 0.0071866084 -0.041384798 0.024868712 -0.0070822746 0.087312914 0.025471482 -0.012536156 0.014818128 -0.019568872 -0.030666715 -0.0030913358 -0.021345083 0.020840827 -0.10289558 0.021993222 -0.10218773 0.02227348 -0.01687029 -0.016436515 0.010245949 0.021088723 -0.02971779 -0.05571159 -0.058605205 0.007822258 0.010532763 0.028061062 -0.016388655 0.031019067 -0.052008804 -0.00924198 -0.010863516 -0.004660421 -0.023954121 -0.047801 0.06626646 0.010817549 0.014250732 0.045090344 -0.007897816 -0.038309224 -0.01254854 0.03369281 -0.0014471747 0.008549151 -0.021653157 0.057354394 0.02159978 -0.012183766 0.006795343 -0.0034755645 -0.029680504 -7.638207e-05 -0.12144342 0.041358486 0.0031507688 0.0060630576 0.06496095 0.014122483 -0.017092427 0.03991582 -0.015875509 0.018535491 -0.008187554 0.06489056 0.018000156 -0.038117956 0.05059249 -0.029621085 -0.020999648 -0.030315917 0.025731036 0.026786549 -0.046324406 0.0076480126 -0.05772773 0.011201658 -0.03547377 0.039964683 0.034464244 -0.016736312 -0.03263172 0.004685726 -0.02746014 0.03131116 -0.013718175 -0.008976701 0.021715708 -0.026729863 -0.0024079499 -0.05102549 0.0029416159 -0.04221501 -0.02258489 -7.7711615e-05 -0.0018303957 0.01017457 -0.046945974 0.006475913 0.035684343 -0.050547197 0.034619004 -0.04921386 0.009160923 0.0014814555 -0.018049465 0.027089648 0.0009412526 0.03862444 0.008295948 -0.017264908 0.05233432 0.016127441 -0.030488685 -0.0009948008 -0.0061452677 -0.025934035 0.026167825 -0.0036751612 -0.006964579 -0.00923046 0.04036838 -0.017608117 0.012295252 -0.07105071 -0.022147706 0.026672814 0.02122095 -0.00536882 -0.064321905 0.026714304 -0.010468177 0.0078030587 -0.05894159 -0.00091767235 0.025279606 -0.022214392 -0.02284851 -0.03597571 -0.0018165599 -0.01858758 -0.005386582 0.02570346 -0.06810445 -0.03754574 -0.032884818 0.029162358 -0.009184486 0.016963292 -0.025117163 0.041992847 0.063720815 -0.022541735 0.01070414 0.057903808 0.03687089 0.055884827 -0.032865204 0.014977144 -0.026622504 -0.036881298 -0.005274934 -0.0048451526 0.0005947887 0.008866802 -0.025621712 0.033056308 -0.025458604 0.039618034 -0.021114873 0.03994571 0.054747928 0.05171886 0.009150616 0.011356218 0.0011702722 0.006646099 -0.020368846 0.050077055 0.0012388784 -0.0046878043 -0.0003961646 -0.022547193 -0.009981649 0.014770448 -0.03350086 0.016265487 0.06814848 -0.028994253 -0.04421736 -0.025363762 0.0046503157 0.0058950563 -0.040739965 -0.013084086 0.0022289199 -0.02819077 -0.005341816 0.008435432 0.029746514 -0.024764469 0.020927625 -0.073019184 0.014741986 0.05566746 0.030478206 -0.04352674 -0.022587527 0.015608436 -0.005157357 -0.027788235 0.013807083 -0.030182546 -0.03940648 0.06377083 0.05015681 -0.010352847 -0.005461705 0.0236369 -0.00013865174 -0.010408445 0.010967561 -0.0047564483 0.0044832444 -0.06823487 -0.02651365 0.0433819 0.012731885 0.008331536 -0.014062249 -0.03162076 -0.04643765 0.0281641 0.01570358 0.045992974 0.024178589 -0.04457749 0.033896927 0.022220725 0.03187899 -0.0062989546 -0.013021132 -0.04047412 -0.0748187 -0.0199497 0.0025177163 0.010588348 -0.023761353 0.02390641 -0.0038321067 -0.0391324 0.0038343302 -0.019251134 -0.036349177 -0.10375619 -0.04978012 -0.03040383 0.04036704 -0.0016108381 -0.004012388 -0.10593566 0.031271975 -0.03240698 -0.037159257 -0.05469238 -0.006440323 0.06915229 0.023420598 0.035827592 0.021934625 -0.028230438 -0.047345284 -0.011791464 0.024742438 -0.02693563 0.22324741 0.009631063 0.033194315 -0.01036989 0.030781541 0.036457725 -0.0029454373 -0.005342456 0.015804434 0.009033725 0.0078015407 -0.013216189 -0.013491778 0.0061516888 -0.003394273 0.028909268 0.015882194 0.0051625324 -0.017513715 -0.01312227 -0.025415113 -0.032110058 0.030780233 0.045268256 -0.040434748 0.01231202 0.03300173 -0.014154771 0.06221137 0.03549809 0.013073253 0.0036360242 -0.06475587 0.031192027 0.0054068686 -0.036825385 0.028710313 -0.02106044 -0.0014685129 -0.015588758 -0.018369155 0.06875154 -0.026027212 0.015226566 -0.010241892 -0.0029462625 0.005638455 0.015738828 0.014981598 0.03710144 0.008245718 0.046471458 -0.04082537 -0.04836222 0.03404 0.019581221 0.015655383 0.0062472676 0.007146929 0.025844963 0.010015716 0.0031468126 -0.014049268 0.030523125 0.029565118 0.064249195 0.027566954 0.030550744 -0.010611633 0.016591616 0.0068496717 -0.028422395 -0.0029468276 -0.009746097 0.038004972 0.0051705064 -0.018675813 -0.0086534545 0.002507255 0.02431788 -0.03484346 0.007388449 0.00033876405 -0.003822201 -0.012312478 -0.033313565 -0.06302237 -0.00458425 0.012638688 -0.020149369 0.052204866 -0.036858093 0.010093999 0.024165176 -0.05926197 -0.017545702 -0.0034983242 -0.07633388 0.016619695 -0.016860723 -0.00062075123 0.004052823 -0.033943098 0.021474339 0.009061137 0.05661546 0.033577688 0.005028184 0.076460525 0.04136292 -0.025259838 -0.10914446 0.041930065 0.10033218 -0.0056172446 -0.062494557 -0.06377576 -0.057821833 -0.013981967 -0.02956301 0.025336863 -0.033435453 -0.011642413 -0.044333007 -0.013005279 -0.015018852 0.029985674 0.002143389 0.043727376 -0.030868037 0.04172817 0.01615281 0.032812595 -0.031113425 0.017946798 0.010764932 -0.054809406 0.015362649 0.017147858 -0.069230676 0.003209561 -0.045823287 0.03551115 0.14531805 -0.039708104 -7.6157207e-06 -0.02430756 -0.0035959373 0.028140983 0.121675506 0.04318621 -0.043015603 0.0024248487 -0.032806177 0.005153791 0.047394525 -0.01314178 0.021493707 -0.015370177 -0.03192324 0.004290998 -0.04710355 0.022461941 -0.0047055366 0.019502673 0.060720306 -0.026226921 -0.008918553 0.049974393 0.025833067 -0.040251106 0.00046502738 0.006268662 0.025433132 0.004291674 0.009665595 -0.01769768 -0.05041276 0.012983859 -0.012184508 -0.0059002684 0.0040720976 0.0029655977 0.024124917 0.016085308 -0.010767022 0.0014044803 -0.0024612818 -0.019531041 -0.016571684 0.016808536 -0.021279005 0.016631223 -0.010647496 -0.04912816 -0.04676552 0.04389015 0.009056721 -0.017245673 -0.0095024435 0.016393388 0.0013014576 0.03632783 0.011950295 -0.020824272 -0.017730076 -0.058850877 0.0039721085 -0.028585088 -0.088758215 -0.03250324 -0.015829634 0.076458566 -0.0041126716 0.018725578 -0.0043848003 0.012265547 0.011733723 -0.01330035 -0.012128311 -0.008545343 0.020659456 -0.03144686 -0.0009873501 -0.016851813 -0.007535879 -0.01656666 0.045383304 0.009161581 -0.07299236 -0.07505697 -0.09761836 -0.018237017 0.0056014955 0.041688934 0.048154812 -0.0074900077 -0.019978521 -0.018440073 0.021367878 0.026776485 -0.010113433 -0.041451506 0.026396252 -0.043180056 0.059116304 -0.032382548 -0.0076191607 -0.02500756 -0.004909694 -0.074613266 0.017446782 0.0118561415 0.031319823 -0.012179063 -0.011232074 -0.021793595 -0.029471306 -0.02855514 -0.016183851 -0.014093618 -0.033791985 -0.06774126 0.0019768463 0.023442913 -0.0066842767 -0.027576433 0.0047775484 -0.0014898936 -0.020319939 0.03885528 0.0039278376 0.006572223 -0.0015818754 -0.030142127 0.07303594 -0.016134776 -0.016027128 0.04092223 0.013202774 0.056183085 0.0018272495 -0.017510105 -0.033984758 0.003420045 0.028464809 0.08523685 0.04348375 -0.026049295 -0.026288565 -0.020853322 0.01304003 0.015374103 -0.006528174 0.010552095 -0.030909564 0.038013414 0.00022669816 0.0144082885 -0.052224696 -0.01223924 -0.017514922 0.016696138 0.029695436 -0.036178853 0.032862358 0.035513893 0.017626595 -0.02305763 0.0093215965 -0.016928619 0.029015092 0.06503357 0.016767705 -0.029853135 0.0289036 0.048743997 0.02361827 0.017016325 -0.038411576 0.051901463 0.127606 -0.037263244 0.017586077 0.03746889 -0.03569348 -0.033275045 -0.03785268 0.06280826 -0.058843102 0.054665275 -0.018201664 0.0044257706 0.037839353 -0.026232854 -0.011118258 0.04398209 0.018551705 -0.073707245 0.0043636593 -0.01370123 -0.0560652 -0.03813744 0.036144517 0.038023353 -0.009663995 0.033805277 0.021958077 0.092549264 0.03558121 -0.06381833 -0.019020498 0.025308257 -0.014174161 -0.04167437 0.030817207 -0.018423738 -0.014554998 -0.0007850204 0.040135242 -0.022646006 -0.0012260977 0.05749792 -0.0011346577 0.03891552 0.04261667 -0.020259723 0.027837677 -8.5792584e-05 -0.006439783 0.016612064 0.015195248 -0.009557642 -0.0039527244 0.030676037 0.019125551 0.0091999825 -0.020057598 0.0217492 -0.035468716 0.029720986 -0.022771945 0.008777433 0.029283231 -0.031965617 0.004126207 0.026216239 0.024614038 -0.004259015 0.11084217 0.009351347 -0.03234697 0.03621291 -0.01133001 -0.016792193 -0.035150416 -0.0041241706 0.019335482 0.016926639 -0.0099542895 -0.027044013 -0.018271584 0.040609702 -0.0044242567 -0.014384891 -0.0010109469 0.024070868 0.005975944 -0.001181139 0.018709647 0.0075133583 -0.0073805503 -0.06850897 0.039795037 0.054169193 0.015468561 -0.023597024 -0.0052201217 -0.010410041 0.004536207 0.016877733 -0.015787404 0.0057860008 0.036663175 0.004167047 0.0070036636 0.01260824 0.027607052 0.026886677 0.020635001 -0.0032191456 0.013261536 -0.005019528 -0.0076778815 -0.024135854 0.004777918 -0.041851994 -0.046912014 -0.031939812 -0.06440464 0.015923195 -0.0045096967 0.022518922 -0.05051656 0.0049317675 0.049465653 0.008317914 0.030628715 -0.003259751 -0.0077259494 0.038831845 -0.0040751216 0.077123344 -0.02008842 -0.011655538 0.005350167 0.005230417 0.028596403 -0.019626634 -0.053050715 0.018525967 -0.0014435942 0.07439205 0.011017298 0.04053146 0.00876387 0.034911677 -0.0055607795 0.0046620043 0.04972721 0.017266462 -0.04071084 -0.0328128 -0.024868755 -0.0019763377 0.020351501 -0.025037345 0.021556133 0.021450479 0.043845512 -0.013221508 -0.003082608 -0.087730914 -0.0056449547 -0.010892101 -0.016789632 -0.03354482 -0.022687392 0.0049691666 -0.004730631 0.013515586 -0.012877505 -0.0011853353 0.01782711 0.014688158 0.035267424 0.021117203 -0.05666619 0.025071757 0.020386823 -0.022414457 -0.020839602 -0.007702894 0.08801017 0.006710047 0.0050975755 -0.0028981294 -0.002725956 0.0033928498 0.085877426 -0.01096883 0.017856652 -0.024429046 0.014887216 0.039360505 0.028841207 0.024943179 0.011769601 0.010013423 0.026736181 0.117608316 -0.022021778 -0.026386108 -0.14332834 0.045002718 -0.02877388 0.03406507 -0.007401892 0.03808332 0.029506413 0.035767987 -0.013892382 0.0103044575 -0.018034756 0.01861767 -0.008019605 -0.019095829 -5.2921427e-05 0.0032232364 -0.047548834 -0.0072424016 -0.056268506 0.058268066 0.14300598 0.021926122 -0.059557635 0.023459192 -0.04432627 0.030500181 0.028878747 -0.017442945 -0.036405105 0.00010022838 -0.050256476 -0.009787639 0.028688148 0.009779804 -0.034260657 -0.0032980677 -0.03605886 -0.011904841 -0.015731707 0.012917265 0.053076494 -0.030908143 -0.022517692 -0.04163298 -0.04340894 -0.0016781721 -0.043067764 -0.026340945 -0.00637904 -0.01326142 0.040437546 -0.013864169 0.072362006 0.016551368 -0.031939432 0.02840566 0.058085956 -0.0079367375 -0.07924317 0.028940862 -0.014114569 -0.11398381 -0.020975608 0.036996745 -0.038929973 0.002334628 -0.020601427 -0.03089171 -0.01659524 -0.007782687 0.02423214 0.0078858975 -0.005694954 0.016479475 0.0022647618 0.01385022 -0.025734182 -0.020406261 0.0053830333 0.018213788 0.0010014654 0.1011453 0.03661784 -0.032747556 0.02952875 -0.08056464 0.0018162981 -0.021665469 0.010300468 -0.0052434173 -0.014823393 -0.0015492775 -0.009415697 -0.04682875 -0.054036703 0.044686615 0.099647105 -0.034449037 0.031629987 -0.046655558 0.02903908 0.018995134 0.016072728 -0.01664195 0.032384627 0.037050683 -0.020033898 -0.065062754 -0.011016395 0.044058193 -0.010948337 0.0106470045 -0.022723114 -0.020663513 0.04434262 -0.0016991082 0.03434046 -0.018616084 -0.005414586 -0.0016846098 -0.015770085 -0.0021012248 0.050817613 -0.021781562 -0.011816764 -0.0229407 0.021013055 0.0003024375 -0.050359868 -0.028459575 -0.13206832 -0.00020668838 0.028866362 0.0046669687 -0.072545245 0.005781397 -0.04897624 -0.032615323 0.010166372 0.0066803466 0.0036910449 -0.0042556482 -0.04015734 0.0039951326 -0.002341873 -0.040623713 -0.047339 0.026604215 -0.0052616335 -0.07811433 0.024416082 -0.05049369 -0.017363532 0.05507901 -0.017155355 0.011256607 -0.0012068943 -0.031313475 0.07942044 -0.03883384 0.04168513 -0.06452685 0.017892513 0.031577542 -0.009351554 0.0070738522 -0.04867653 0.05018444 0.006096382 0.0056025074 0.05945132 -0.010988063 -0.0073380857 -0.010937512 0.016936429 0.013295945 0.012254488 -0.006737427 -0.035958942 -0.030994518 -0.079910986 0.040069617 -0.030761635 0.012444977 -0.008565325 -0.031946596 0.006696491 0.107244276 0.028841127 0.010326132 -0.005838755 0.0051406203 -0.024150273 -0.04780183 -0.073975176 0.07019479 0.013490923 -0.0049413014 -0.05528433 -0.0014815835 -0.052549258 0.0019193281 0.012083734 -0.036745638 -0.0033663788 0.0101269195 0.0050566173,0.9351
4-hydroxy-3-methylbut-2-en-1-yl_diphosphate_synthase,0.04425849 0.019209906 0.004248843 0.034532357 -0.011767372 0.041917738 -0.06178834 -0.045425225 -0.016079951 -0.06945273 -0.009764701 0.013070528 -0.020239968 0.099963926 0.00305776 0.029093452 0.0024883894 0.0043728757 0.007695887 0.014007643 -0.05802015 0.005132168 0.09560771 0.009632534 -0.01981322 -0.008964764 0.013810073 -0.05525448 -0.031367246 0.008937452 -0.0026141948 0.059321664 -0.10546148 -0.0014470597 -0.11177071 -0.0122698005 0.02842877 -0.020588828 -0.018351756 -0.032720428 -0.035727087 -0.028641121 0.004122498 0.0033057819 -0.037527274 0.01009976 0.03513533 0.015441459 -0.011414304 0.0018292697 -0.01978877 -0.017498558 -0.0371909 -0.014385128 0.018275758 0.03332344 0.03005373 0.00045706963 -0.04601648 0.04383501 -0.03308394 -0.028339727 -0.025299426 -0.014188767 0.00049218634 -0.023328574 -0.0045126416 -0.022228634 0.021076987 -0.04540688 -0.0045204544 -0.008379993 -0.19817169 -0.0062711253 0.008017914 0.04982039 0.012864137 -0.05250593 -2.901898e-05 0.054235194 -0.032473534 0.022468455 0.012779751 0.020824257 -0.04476894 -0.036919203 0.038744353 -0.02228932 -0.015202841 -0.0024609938 0.0386095 0.036131456 0.0066329055 0.015321556 -0.07417022 -0.012406206 0.022935264 0.04184066 -0.0120283505 -0.01030958 -0.055224054 0.014578205 0.0017932454 0.029768866 -0.0022261823 0.011585725 0.00013205617 0.026947109 -0.010998631 -0.09958865 0.019352935 -0.014138785 -0.042694654 -0.014820678 0.033095803 -0.01873945 0.022413189 -0.032620575 0.03235347 -0.010555228 0.0117084 -0.02984608 0.017159572 -0.002689942 -0.014315194 -0.017308298 -0.020052375 0.0062490953 0.04239807 -0.011034778 0.053676374 0.012700905 -0.013926248 -0.045355786 -0.034714743 -0.050562795 0.0055838334 -0.022853483 -0.052106068 0.014882367 0.05662846 -0.051458925 -0.040687047 -0.021806443 0.007875557 0.00015413926 0.04274809 -0.015138472 -0.017990043 -0.011050586 0.026235564 -0.005518752 -0.0071343407 -0.0063593932 -0.016661594 -0.032237783 0.0019859634 -0.045473546 -0.046965174 -0.014134604 0.015518102 0.021457681 -0.053937633 0.0069438936 -0.079311825 0.028394742 -0.023824396 -0.01272948 0.01069117 0.021299323 0.029531457 0.010709191 0.009175091 -0.030594433 -0.022834163 0.0016310186 0.02208117 -0.028342584 0.013374863 -0.022443505 0.023455834 -0.024620164 -0.033597246 -0.0006147656 0.0093326215 -0.002507347 0.026279407 -0.0013497336 -0.08144101 0.0063923984 0.10495829 -0.0029205354 -0.05084144 0.009875597 0.01644711 0.061607838 -0.007780759 -0.002486022 -0.01724264 0.0032449143 -0.031690963 0.022403598 -0.058408286 -0.057446275 -0.0011990892 0.022714222 0.13026045 -0.0011999664 -0.030538006 0.020668603 0.008330153 -0.029674929 -0.010236415 0.015863629 -0.030791722 -0.015554799 0.004557465 -0.060700156 0.014634222 0.0046193074 -0.024148244 -0.029300898 0.036275446 0.040671892 0.017245445 -0.010449658 -0.0014061993 -0.021800498 0.0020138347 -0.04573172 -0.017945046 -0.009451149 -0.008702015 0.021124667 0.01046443 -0.032258518 -0.0022342186 0.0016615465 0.01894997 0.009310101 0.0012888246 0.033721376 -0.017785514 -0.020955674 -0.037538033 0.017279724 -0.030419447 -0.03948987 0.031251002 -0.0019733023 0.012111481 -0.014828952 -0.030779658 0.019778391 -0.004420288 -0.022006363 0.073624894 0.02685653 0.027181951 -0.009959204 -0.041182473 -0.0040467046 0.020049421 0.06472759 -0.005626106 -0.016773675 -0.0549232 -0.04728394 -0.0017854831 -0.0045682676 -0.009244711 -0.01393292 -0.0830577 -0.10241152 -0.015286832 -0.017212885 0.075760804 0.0037987838 0.021223286 -0.12312486 -0.015835354 -0.017472899 -0.022706762 0.0037901923 -0.0024697264 0.017518599 -0.038077254 0.010679591 0.05453605 0.018731965 0.007943312 0.056743596 -0.00678972 -0.025945265 0.18482257 0.015477404 -0.019220628 -0.020701835 -0.013724987 0.042736292 0.007092523 -0.010882352 0.0069617047 -0.024484824 0.007060147 -0.008070408 -0.013817922 -0.018729446 -0.017673854 0.012951667 0.0032656956 -0.010406163 -0.0105584 0.014283706 -0.006938652 -0.010632807 0.023426399 0.0323505 -0.029866908 -0.004254011 -0.0002010508 -0.037017256 -0.016079454 0.015603697 0.043317445 -0.015778024 -0.06848518 -0.01934084 0.036791574 -0.04467705 0.007120026 0.011351212 -0.0055858926 -0.02460434 -0.01950255 0.0034638182 0.004987698 0.010366882 -0.037090458 0.018806672 -0.023312494 0.015638834 0.027568722 0.020892635 0.038215764 0.030646857 -0.00507605 -0.009742009 -0.012828793 -0.020114925 -0.013103137 -0.014459884 0.018078439 -0.004863309 0.02561374 -0.040528286 -0.010750019 0.025682382 0.029654128 0.04366163 -0.007641498 -0.012227047 -0.010526527 -0.030819764 0.017646052 0.00040106292 -0.03044353 0.045107882 0.035280894 -0.03480167 -0.014168425 0.00783009 0.017133532 0.0147282425 -0.0006605267 0.0173255 -0.024661565 0.008033761 0.0068136533 -0.024617733 0.012207136 0.034524146 -0.017756823 0.021462847 0.010469395 0.022804867 0.0009799021 0.0017749792 -0.016891818 -0.023014674 0.010996817 -0.014969247 -0.020546012 -0.06557989 0.0009442521 0.062283743 -0.0044818334 0.0155213205 -0.0076452405 -0.008180468 0.028077848 0.028179497 0.17118469 0.052167367 -0.051393464 -0.07767145 -0.0065763197 0.07469276 0.025286805 -0.04137392 0.0019359635 -0.04464063 -0.040728915 0.017981824 -0.0096108485 0.014413674 0.0027949677 0.05353806 -0.014923827 -0.022675572 -0.0025755174 -0.02748077 -0.01486708 -0.022835078 -0.0005697647 0.0051355595 -0.006819807 -0.00013993574 0.010518796 -0.016708435 -0.10292542 0.010345218 -0.025531817 -0.011929837 -0.010614601 -0.04592406 -0.047521763 0.058426525 -0.020634584 0.012145495 -0.016269486 -0.009616653 0.008500339 0.10668143 0.008652147 0.01650651 -0.0017994801 0.002846301 -0.016147772 0.0073651425 0.002513754 0.0042601195 0.016944002 -0.031854425 0.01756907 -0.055677634 -0.038719058 -0.007894323 0.013307877 0.030519584 0.0037832316 0.005707676 0.046621446 0.018104551 -0.020150807 -0.04755785 -0.003653705 0.0061837495 0.041256335 0.0015913509 -0.06566754 -0.025909588 0.018410442 -0.012609185 -0.019347986 0.0044321395 0.0148348035 0.020035902 -0.011596847 -0.003274264 -0.031651456 0.0018651847 -0.0064616487 -0.041752886 -0.009513133 -0.056040738 -0.0027670437 -0.008038676 -0.0076087858 0.013370629 -0.029452704 0.079760544 -0.028393364 0.016427701 -0.0028386249 0.027761864 -0.013211704 0.007150871 -0.021070857 0.01128015 0.010975851 0.0075054117 -0.008986114 0.00029718693 -0.04101546 -0.00087903294 -0.031368077 -0.028459841 0.005155282 0.016891964 0.023828812 -0.007466661 -0.013125111 -0.03489189 -0.009383998 -0.009357396 0.0061591207 0.0012315138 -0.0066363164 0.0034421233 0.0222753 0.10248035 -0.011137287 0.0042286706 -0.039828554 -0.019644544 -0.025484279 -0.0076154824 -0.023521025 0.010996665 0.039450932 -0.010482245 0.005396956 0.013251739 -0.0371303 0.015974458 -0.00058601284 -0.054775238 -0.018633952 0.05532146 -0.0038158386 0.015279876 -0.029553158 -0.0045164055 -0.027429758 -0.024433473 0.014732542 -0.062472697 -0.031705067 0.034656446 -0.033682942 -0.017369835 0.013366566 -0.011318753 -0.017984634 0.0061426484 -0.07489347 0.02759639 0.020034542 0.019412061 -0.009954132 0.008728013 0.0031831292 -0.00060416554 0.02085709 0.032461558 -0.009621526 -0.029286359 -0.00792586 0.040858995 0.0072835544 -0.004797837 0.038048103 -0.019417066 -0.004262188 0.028336905 -0.0004798836 -0.03649535 -0.031900503 -0.0151797505 0.023248134 -0.078972064 -0.02027644 0.040861145 0.0018012346 0.024900716 0.0054473896 -0.045612287 -0.0049332287 -0.07645509 0.017423911 0.01943522 0.0262761 -0.015815783 0.03857232 0.014687138 -0.0251799 0.0063727037 0.007634749 -0.023140386 0.010832143 0.018765483 -0.05425332 -0.012518322 -0.04325292 -0.006358481 0.04291107 -0.005914594 0.010467565 0.009211006 0.0014608452 -0.013327725 0.026751578 -0.0006166149 0.07757838 0.12900968 -0.010614513 -0.03497735 -0.035441086 -0.04004452 -0.020319074 0.017950516 -0.037967972 0.009951469 0.0006933046 -0.02434102 -0.021837886 -0.005415632 -0.0057615424 -0.028451454 0.065565795 -0.014490314 -0.026453603 -0.016290575 0.017624047 0.012146487 -0.0028282502 -0.0077144913 -0.007657235 0.022077994 -0.026643118 -0.044992205 0.012989695 0.034605302 -0.084656976 -0.007227508 -0.017631037 -0.0070821526 -0.039246295 0.0034040555 0.009580783 -0.02812791 -0.021788929 0.07100339 -0.013251096 -0.031359416 0.022017082 -0.039621554 0.008653102 -0.01726492 -0.030702634 -0.08955934 -0.0121062705 -0.022588791 0.008829945 -0.001528153 -0.026471144 -0.031695846 0.0011511394 0.020059712 -0.012421484 -0.04919126 -0.004864663 -0.017046494 0.034643933 -0.021519832 -0.010798896 0.0047431756 -0.020869523 -0.0063224626 0.035410553 -0.019625267 -0.029339833 0.11303645 0.042768244 0.013664488 0.014608484 0.02410895 -0.0031820813 -0.008404624 0.014581464 0.0053384937 0.025921265 -0.009021026 0.01579599 0.04566204 0.007414855 0.020538324 -0.04810791 -0.006326056 0.035456114 0.030165697 0.0056598573 0.0315543 -0.010216676 0.009087069 -0.009963623 -0.006385725 0.018358493 -0.010553679 -0.033674184 0.002101286 0.033974722 -0.00861972 0.015262731 -0.026412776 -0.0025021806 0.010686041 0.021369157 -0.01968981 -0.0034948867 -0.03189012 0.027768334 -0.01376216 0.0010545931 -0.0038475269 0.036238626 -0.0256551 -0.017387873 -0.016935881 -0.011783825 -0.018894022 -0.040433455 -0.036453277 -0.017583752 0.013266263 0.0074883895 -0.011353433 0.02495477 0.044244964 -0.007327262 0.0053641545 -0.0018037317 -0.045069635 0.06997827 -0.047758754 -0.024635524 -0.0066899396 -0.023247214 0.013045609 -0.03449208 0.06360345 -0.04360915 -0.1085493 0.0066685006 0.02330675 0.014783828 -0.02333331 -0.009007639 -0.02992226 -0.00746579 -0.011452398 0.012320248 -0.0099109365 0.032937918 -0.020518811 0.05479535 -0.024334561 0.028780546 -0.019230073 0.017864367 0.011266015 0.0100098085 -0.011841313 0.054967705 0.023716738 -0.036130153 0.029740281 0.006065201 -0.032396853 -0.017568447 0.023036255 -0.011538919 -0.020822069 0.015923178 0.067887336 -0.0022831801 -0.009970523 0.005381301 0.008291451 0.033546936 0.003374925 -0.018982928 0.025974503 -0.021899093 0.016954945 0.02492378 0.037911277 0.0011001294 -0.024841193 0.041522898 0.0048266365 0.027688999 -0.0027488268 -0.0137436865 -0.02241569 -0.011682829 -0.013352682 -0.002858188 0.020705279 0.021464592 -0.00093797897 -0.011720995 0.053614024 0.119584605 -0.0068258448 0.02755438 -0.0573948 0.05360758 -0.0102285445 -0.00020754665 0.005461676 0.008321686 0.046286404 -0.009681947 -0.0013341833 0.025369668 0.0357899 0.018072601 0.018567203 0.008875365 -0.0073362775 -0.011547156 -0.022900708 -0.018707583 -0.043093894 0.05208533 0.1214562 0.015637575 -0.022845289 -0.018551841 -0.038367447 0.018371796 -0.023789726 0.001880838 -0.015774043 -0.075576894 -0.028724832 0.005174657 0.0027194617 0.059555076 -0.053953357 -0.009807018 -0.039040163 -0.020131528 0.008745668 -0.03148234 0.0062495763 0.036134273 -0.030097762 -0.0062321313 0.020736119 0.031820405 0.025573341 0.009781327 -0.0035058297 -0.032980476 0.023781672 0.018945672 0.029758636 0.027027477 -0.031934954 -0.0017215085 0.05937923 -0.025678944 -0.108712636 -0.026207913 -0.025869478 -0.046081845 -0.019894514 0.03905152 -0.027580637 -0.011811865 -0.004922454 0.022840492 0.064338215 0.039354064 0.0050537614 0.0033741281 0.021584513 0.018512743 -0.0055482923 0.0069315503 -0.04927047 -0.0069717094 -0.0119676925 0.005757104 -0.008963209 0.100367434 -0.0060177725 -0.013846994 0.026101245 -0.09249265 -0.014262758 -0.037912752 -0.0035759888 0.02446525 0.04315141 0.016906787 -0.052466094 -0.031357467 -0.027395248 -0.0019220092 0.10568812 -0.035230566 0.0068717357 -0.075805336 -0.054252565 0.010900937 0.03841248 0.016257698 0.04184425 0.0057459488 -0.0019134884 -0.03189854 -0.0003494418 0.057343893 -0.024112182 0.022231584 0.03021391 -0.0007094648 0.05097809 0.02439593 -0.031209955 -0.0207866 -0.0044683195 -0.03363703 -0.01586109 0.046762485 0.0051968447 -0.014304854 -0.05116747 0.01027163 -0.012395742 0.056509484 -0.012057464 -0.028031697 -0.12688231 -0.065129034 0.021983037 -0.032232106 0.0007610147 -0.005992874 -0.08880028 -0.039732553 0.0175635 0.045354195 0.05086089 0.0069860118 -0.009483771 0.024138268 0.03465478 -0.015008487 0.017735625 0.02905059 -0.04561606 -0.07301715 0.026497146 0.023102064 -0.0028488792 0.031552974 -0.0077138226 0.0033244381 -0.0041689267 -0.013961342 0.02759231 -0.019328088 0.011517358 -0.04640502 -0.015456103 0.028681694 0.060807828 0.036060013 9.7298485e-05 0.052628536 -0.008809329 -0.0024574632 -0.008642325 0.0004866717 0.016187139 0.007406529 -0.0025687783 0.06634606 0.018203335 -0.0003252803 0.00977824 0.013463495 -0.06030209 -0.0196179 -0.0098262625 0.008914852 -0.020202218 -0.04256981 0.025046438 0.11224379 0.0139331985 0.042161964 0.01049521 0.0062033786 -0.0017364594 -0.042805135 -0.038419463 0.06932261 0.004161116 -0.054030478 0.0018746327 -0.03289469 -0.0349712 0.03171224 -0.011507618 -0.019388948 0.031358432 -0.00682559 0.019004483,0.9381
